{"learner":{"attributes":{"best_iteration":"99","best_ntree_limit":"100","scikit_learn":"{\"use_label_encoder\": null, \"n_estimators\": 100, \"objective\": \"binary:logistic\", \"max_depth\": null, \"max_leaves\": null, \"max_bin\": null, \"grow_policy\": null, \"learning_rate\": null, \"verbosity\": 0, \"booster\": \"gbtree\", \"tree_method\": \"gpu_hist\", \"gamma\": null, \"min_child_weight\": null, \"max_delta_step\": null, \"subsample\": null, \"sampling_method\": null, \"colsample_bytree\": null, \"colsample_bylevel\": null, \"colsample_bynode\": null, \"reg_alpha\": null, \"reg_lambda\": null, \"scale_pos_weight\": null, \"base_score\": null, \"missing\": NaN, \"num_parallel_tree\": null, \"random_state\": 6633, \"n_jobs\": -1, \"monotone_constraints\": null, \"interaction_constraints\": null, \"importance_type\": null, \"gpu_id\": null, \"validate_parameters\": null, \"predictor\": null, \"enable_categorical\": false, \"feature_types\": null, \"max_cat_to_onehot\": null, \"max_cat_threshold\": null, \"eval_metric\": null, \"early_stopping_rounds\": null, \"callbacks\": null, \"classes_\": [0, 1], \"n_classes_\": 2, \"_estimator_type\": \"classifier\"}"},"feature_names":["pH","Iron","Nitrate","Chloride","Lead","Zinc","Color_Colorless","Color_Light Yellow","Color_Near Colorless","Color_Faint Yellow","Color_Yellow","Turbidity","Fluoride","Copper","Odor","Sulfate","Chlorine","Manganese","Total Dissolved Solids"],"feature_types":["float","float","float","float","float","float","float","float","float","float","float","float","float","float","float","float","float","float","float"],"gradient_booster":{"model":{"gbtree_model_param":{"num_parallel_tree":"1","num_trees":"100","size_leaf_vector":"0"},"tree_info":[0,0,0,0,0,0,0,0,0,0,0,0,0,0,0,0,0,0,0,0,0,0,0,0,0,0,0,0,0,0,0,0,0,0,0,0,0,0,0,0,0,0,0,0,0,0,0,0,0,0,0,0,0,0,0,0,0,0,0,0,0,0,0,0,0,0,0,0,0,0,0,0,0,0,0,0,0,0,0,0,0,0,0,0,0,0,0,0,0,0,0,0,0,0,0,0,0,0,0,0],"trees":[{"base_weights":[-7.877787E-1,-1.0666181E0,7.1713156E-1,-1.2444824E0,9.1312337E-1,2.42992E-1,9.2002654E-1,-1.3936366E0,9.05897E-1,9.153465E-1,8.74496E-1,9.1251993E-1,-6.524205E-1,9.26784E-1,9.1101944E-1,-1.5122057E0,9.145817E-1,9.024756E-1,9.51574E-1,9.272941E-1,9.0840596E-1,7.472924E-1,8.8380283E-1,9.160087E-1,8.2056254E-1,-8.609394E-1,9.123092E-1,9.236014E-1,9.6144855E-1,8.9827824E-1,9.192417E-1,-1.6132528E0,9.092711E-1,9.170573E-1,8.2741857E-1,9.1884273E-1,8.9447373E-1,8.8907564E-1,9.8166174E-1,9.2883605E-1,7.583244E-1,7.2629696E-1,9.089732E-1,1.0413224E0,6.6206896E-1,4.5045045E-1,8.8684267E-1,6.344411E-1,9.1684294E-1,7.105538E-1,9.141825E-1,-1.0481359E0,9.110512E-1,9.6717376E-1,8.548987E-1,9.1787136E-1,9.462603E-1,7.1272725E-1,9.6769947E-1,6.543438E-1,8.999568E-1,9.205756E-1,7.7529097E-1,2.709801E-1,-5.092698E-1,2.7080634E-1,2.8319633E-1,2.660747E-1,2.7714396E-1,2.639668E-1,2.1041498E-1,2.7786812E-1,2.6031044E-1,2.7074957E-1,2.6028755E-1,3.3352438E-1,2.5499263E-1,3.5922334E-1,2.8999674E-1,2.8023362E-1,2.661462E-1,9.4736844E-2,2.521073E-1,2.4598698E-1,8.235295E-2,2.7067506E-1,2.7677265E-1,1.3636364E-1,3.4455448E-1,2.6503068E-1,1.5766424E-1,-1.5789475E-1,1.875E-1,2.880597E-1,2.5977817E-1,1.3916351E-1,3.6666667E-1,2.8328374E-1,2.719576E-1,3.1489363E-1,1.9511002E-1,3.4904942E-1,2.6363173E-1,-3.6328578E-1,2.6250723E-1,2.9891226E-1,2.5662398E-1,2.8321266E-1,3.589165E-1,4.5365855E-1,2.5285715E-1,2.7177024E-1,2.7916592E-1,2.9202387E-1,2.7837634E-1,2.4770643E-1,8.135594E-2,3.098517E-1,2.8602618E-1,1.3476923E-1,2.8363636E-1,3.002616E-1,2.6903635E-1,2.7966705E-1,2.716115E-1,2.565746E-1,1.2777779E-1],"categories":[],"categories_nodes":[],"categories_segments":[],"categories_sizes":[],"default_left":[0,0,0,0,0,0,0,0,0,0,0,0,0,0,0,0,0,0,0,0,0,0,0,0,0,0,0,0,0,0,0,0,0,0,0,0,0,0,0,0,0,0,0,0,0,0,0,0,0,0,0,0,0,0,0,0,0,0,0,0,0,0,0,0,0,0,0,0,0,0,0,0,0,0,0,0,0,0,0,0,0,0,0,0,0,0,0,0,0,0,0,0,0,0,0,0,0,0,0,0,0,0,0,0,0,0,0,0,0,0,0,0,0,0,0,0,0,0,0,0,0,0,0,0,0,0,0],"id":0,"left_children":[1,3,5,7,9,11,13,15,17,19,21,23,25,27,29,31,33,35,37,39,41,43,45,47,49,51,53,55,57,59,61,63,65,67,69,71,73,75,77,79,81,83,85,87,89,91,93,95,97,99,101,103,105,107,109,111,113,115,117,119,121,123,125,-1,-1,-1,-1,-1,-1,-1,-1,-1,-1,-1,-1,-1,-1,-1,-1,-1,-1,-1,-1,-1,-1,-1,-1,-1,-1,-1,-1,-1,-1,-1,-1,-1,-1,-1,-1,-1,-1,-1,-1,-1,-1,-1,-1,-1,-1,-1,-1,-1,-1,-1,-1,-1,-1,-1,-1,-1,-1,-1,-1,-1,-1,-1,-1],"loss_changes":[4.3744156E5,3.0969225E5,1.5676453E4,2.5883375E5,5.4257812E0,2.9278555E4,6.1015625E0,2.0653562E5,7.3242188E0,4.8398438E0,4.0371094E0,8.212891E0,6.8181533E3,6.3007812E0,4.3046875E0,1.7562925E5,7.1972656E0,5.5585938E0,5.95166E0,5.845703E0,3.8203125E0,6.2516937E0,4.4641113E0,5.7402344E0,9.96875E0,6.117034E3,6.9139404E0,6.8828125E0,7.789551E0,7.2958984E0,4.9960938E0,1.461955E5,5.71875E0,6.4804688E0,6.1845093E0,5.2246094E0,6.2773438E0,9.4157715E0,6.74292E0,4.6464844E0,8.184036E0,5.6883316E0,3.125E0,3.283287E0,6.1088486E0,5.0601587E0,4.791992E0,7.729019E0,6.7382812E0,9.083023E0,3.8640137E0,5.222924E3,7.5134277E0,5.49292E0,8.298523E0,6.3984375E0,5.080078E0,6.63414E0,3.9604492E0,7.6511345E0,5.2158203E0,4.3710938E0,7.4364166E0,0E0,0E0,0E0,0E0,0E0,0E0,0E0,0E0,0E0,0E0,0E0,0E0,0E0,0E0,0E0,0E0,0E0,0E0,0E0,0E0,0E0,0E0,0E0,0E0,0E0,0E0,0E0,0E0,0E0,0E0,0E0,0E0,0E0,0E0,0E0,0E0,0E0,0E0,0E0,0E0,0E0,0E0,0E0,0E0,0E0,0E0,0E0,0E0,0E0,0E0,0E0,0E0,0E0,0E0,0E0,0E0,0E0,0E0,0E0,0E0,0E0,0E0,0E0,0E0],"parents":[2147483647,0,0,1,1,2,2,3,3,4,4,5,5,6,6,7,7,8,8,9,9,10,10,11,11,12,12,13,13,14,14,15,15,16,16,17,17,18,18,19,19,20,20,21,21,22,22,23,23,24,24,25,25,26,26,27,27,28,28,29,29,30,30,31,31,32,32,33,33,34,34,35,35,36,36,37,37,38,38,39,39,40,40,41,41,42,42,43,43,44,44,45,45,46,46,47,47,48,48,49,49,50,50,51,51,52,52,53,53,54,54,55,55,56,56,57,57,58,58,59,59,60,60,61,61,62,62],"right_children":[2,4,6,8,10,12,14,16,18,20,22,24,26,28,30,32,34,36,38,40,42,44,46,48,50,52,54,56,58,60,62,64,66,68,70,72,74,76,78,80,82,84,86,88,90,92,94,96,98,100,102,104,106,108,110,112,114,116,118,120,122,124,126,-1,-1,-1,-1,-1,-1,-1,-1,-1,-1,-1,-1,-1,-1,-1,-1,-1,-1,-1,-1,-1,-1,-1,-1,-1,-1,-1,-1,-1,-1,-1,-1,-1,-1,-1,-1,-1,-1,-1,-1,-1,-1,-1,-1,-1,-1,-1,-1,-1,-1,-1,-1,-1,-1,-1,-1,-1,-1,-1,-1,-1,-1,-1,-1],"split_conditions":[5.139577E-2,1.0937307E0,1.14142396E-1,2.509326E2,1.3300685E0,1.0926886E-1,1.6439522E-2,1.0697227E0,4.8109374E0,5.0526056E0,2.680279E-11,2.5687275E0,1.0937307E0,3.298678E2,3.5987204E-1,3.2031913E0,3.8575695E0,1.4028257E0,4.7952304E0,4.5619382E2,6.8828126E-4,3.458504E-1,4.168739E0,2.5247501E-2,2.7417853E2,2.509326E2,1.8986792E2,3.2814798E0,5.346265E1,1.7960451E0,5.978282E0,6.490755E0,4.8769498E2,2.6486037E0,8.318025E-2,4.401495E0,3.5910287E2,8.8047445E-9,2.585329E-2,1.9380707E-2,2.6671132E-1,1.841732E-1,1.8607575E0,4.133967E0,3.0739838E-1,2.9089826E-1,1.5323744E-6,8.401604E0,1.1747817E0,3.2943742E0,2.1602224E-1,1.0456759E0,2.266161E2,5.2663007E2,4.905109E0,1.2549001E0,1.8974075E-1,1E0,1.64134E-8,1.5341432E2,1.3953519E-1,5.283079E-1,1E0,2.709801E-1,-5.092698E-1,2.7080634E-1,2.8319633E-1,2.660747E-1,2.7714396E-1,2.639668E-1,2.1041498E-1,2.7786812E-1,2.6031044E-1,2.7074957E-1,2.6028755E-1,3.3352438E-1,2.5499263E-1,3.5922334E-1,2.8999674E-1,2.8023362E-1,2.661462E-1,9.4736844E-2,2.521073E-1,2.4598698E-1,8.235295E-2,2.7067506E-1,2.7677265E-1,1.3636364E-1,3.4455448E-1,2.6503068E-1,1.5766424E-1,-1.5789475E-1,1.875E-1,2.880597E-1,2.5977817E-1,1.3916351E-1,3.6666667E-1,2.8328374E-1,2.719576E-1,3.1489363E-1,1.9511002E-1,3.4904942E-1,2.6363173E-1,-3.6328578E-1,2.6250723E-1,2.9891226E-1,2.5662398E-1,2.8321266E-1,3.589165E-1,4.5365855E-1,2.5285715E-1,2.7177024E-1,2.7916592E-1,2.9202387E-1,2.7837634E-1,2.4770643E-1,8.135594E-2,3.098517E-1,2.8602618E-1,1.3476923E-1,2.8363636E-1,3.002616E-1,2.6903635E-1,2.7966705E-1,2.716115E-1,2.565746E-1,1.2777779E-1],"split_indices":[17,11,17,3,1,17,1,13,5,2,17,13,11,3,17,14,12,14,2,15,13,5,18,14,18,3,3,14,15,16,16,0,18,16,1,16,3,17,13,17,12,1,5,2,13,5,17,0,14,2,12,13,18,18,0,5,11,6,1,15,14,13,6,0,0,0,0,0,0,0,0,0,0,0,0,0,0,0,0,0,0,0,0,0,0,0,0,0,0,0,0,0,0,0,0,0,0,0,0,0,0,0,0,0,0,0,0,0,0,0,0,0,0,0,0,0,0,0,0,0,0,0,0,0,0,0,0],"split_type":[0,0,0,0,0,0,0,0,0,0,0,0,0,0,0,0,0,0,0,0,0,0,0,0,0,0,0,0,0,0,0,0,0,0,0,0,0,0,0,0,0,0,0,0,0,0,0,0,0,0,0,0,0,0,0,0,0,0,0,0,0,0,0,0,0,0,0,0,0,0,0,0,0,0,0,0,0,0,0,0,0,0,0,0,0,0,0,0,0,0,0,0,0,0,0,0,0,0,0,0,0,0,0,0,0,0,0,0,0,0,0,0,0,0,0,0,0,0,0,0,0,0,0,0,0,0,0],"sum_hessian":[1.04244725E6,8.7949E5,1.6295725E5,8.0698875E5,7.250125E4,4.8836E4,1.1412125E5,7.546455E5,5.234325E4,6.853425E4,3.967E3,2.79425E4,2.08935E4,6.514525E4,4.8976E4,7.17775E5,3.68705E4,4.8715E4,3.62825E3,2.51345E4,4.339975E4,2.76E2,3.691E3,2.69125E4,1.03E3,1.8437E4,2.4565E3,5.96925E4,5.45275E3,1.92525E4,2.97235E4,6.8902275E5,2.875225E4,3.5843E4,1.0275E3,1.595875E4,3.275625E4,1.189E3,2.43925E3,2.490275E4,2.3175E2,1.3875E2,4.3261E4,5.95E1,2.165E2,2.675E1,3.66425E3,8.175E1,2.683075E4,4.775E2,5.525E2,1.667575E4,1.76125E3,1.248E3,1.2085E3,4.767725E4,1.201525E4,1.365E2,5.31625E3,1.3425E2,1.911825E4,2.944525E4,2.7825E2,2.233625E4,6.666865E5,2.419175E4,4.5605E3,6.587E3,2.9256E4,7.2125E2,3.0625E2,1.393025E4,2.0285E3,2.51935E4,7.56275E3,1.735E2,1.0155E3,1.535E2,2.28575E3,2.208575E4,2.817E3,3.7E1,1.9475E2,1.1425E2,2.45E1,2.89965E4,1.42645E4,1E1,4.95E1,8.05E1,1.36E2,3.75E0,2.3E1,8.03E2,2.86125E3,6.475E1,1.7E1,7.30775E3,1.9523E4,6.95E1,4.08E2,6.475E1,4.8775E2,1.53745E4,1.30125E3,6.885E2,1.07275E3,1.13825E3,1.0975E2,1.95E1,1.189E3,2.45635E4,2.311375E4,4.82275E3,7.1925E3,1.08E2,2.85E1,9.43E2,4.37325E3,8.025E1,5.4E1,5.725E2,1.854575E4,1.663825E4,1.2807E4,2.2525E2,5.3E1],"tree_param":{"num_deleted":"0","num_feature":"19","num_nodes":"127","size_leaf_vector":"0"}},{"base_weights":[-5.850396E-1,-7.9535604E-1,5.135207E-1,-9.304353E-1,6.5304905E-1,1.7407474E-1,6.581839E-1,-1.030284E0,1.0375807E0,6.565132E-1,6.295589E-1,6.5264714E-1,-4.7256517E-1,6.6355145E-1,6.4670205E-1,6.506943E-1,-1.1479104E0,1.1624404E0,6.469768E-1,6.5573037E-1,7.736833E-1,6.1394906E-1,6.6163796E-1,6.0040855E-1,6.575068E-1,9.534097E-1,-6.390456E-1,6.346269E-1,6.661668E-1,6.9570315E-1,6.432129E-1,6.450899E-1,6.782676E-1,-1.2219058E0,1.0288162E0,1.309035E0,6.561802E-1,3.86664E-1,6.498571E-1,6.7057675E-1,6.504075E-1,7.870055E-1,-5.3583556E-1,6.173052E-1,2.437405E-1,6.4726555E-1,9.048868E-1,6.5814745E-1,5.3958035E-1,7.007167E-1,6.4974755E-1,1.0486513E0,6.532037E-1,-7.9503614E-1,9.397336E-1,8.412809E-2,6.368567E-1,6.670843E-1,5.6799895E-1,7.355717E-1,6.2067467E-1,6.234428E-1,6.537869E-1,1.9315971E-1,2.3273343E-1,2.0520389E-1,1.4189373E-1,-3.8588962E-1,3.0029988E-1,3.4552932E-1,1.9503514E-1,4.4960102E-1,1.9961324E-1,2.005703E-1,1.6585506E-1,2.198099E-1,5.4809827E-2,2.9607087E-1,1.9419546E-1,1.950305E-1,2.074746E-1,1.9648516E-1,1.8831883E-1,2.501452E-1,1.3844974E-1,-4.7732115E-1,3.1507012E-1,1.877256E-1,1.4664048E-1,9.497506E-2,-3.5889405E-1,2.0173132E-1,1.6363317E-1,3.2904726E-1,2.0411234E-1,1.7207873E-1,2.1189527E-1,1.760318E-1,1.23611756E-1,2.2667302E-1,1.9978355E-1,2.0988229E-1,1.927421E-1,3.4767452E-1,2.0634282E-1,2.2281447E-1,1.5782186E-1,-2.8228813E-1,2.744978E-1,3.0978382E-1,2.0047884E-1,-3.2433388E-1,1.1856564E-1,1.514238E-1,1.9393356E-1,1.994649E-1,2.137247E-1,2.9275766E-1,1.6206022E-1,2.1845391E-1,4.1836616E-1,6.2891535E-2,1.9147344E-1,2.0039845E-1,1.8317595E-1,1.7151517E-1,1.9696738E-1],"categories":[],"categories_nodes":[],"categories_segments":[],"categories_sizes":[],"default_left":[0,0,0,0,0,0,0,0,0,0,0,0,0,0,0,0,0,0,0,0,0,0,0,0,0,0,0,0,0,0,0,0,0,0,0,0,0,0,0,0,0,0,0,0,0,0,0,0,0,0,0,0,0,0,0,0,0,0,0,0,0,0,0,0,0,0,0,0,0,0,0,0,0,0,0,0,0,0,0,0,0,0,0,0,0,0,0,0,0,0,0,0,0,0,0,0,0,0,0,0,0,0,0,0,0,0,0,0,0,0,0,0,0,0,0,0,0,0,0,0,0,0,0,0,0,0,0],"id":1,"left_children":[1,3,5,7,9,11,13,15,17,19,21,23,25,27,29,31,33,35,37,39,41,43,45,47,49,51,53,55,57,59,61,63,65,67,69,71,73,75,77,79,81,83,85,87,89,91,93,95,97,99,101,103,105,107,109,111,113,115,117,119,121,123,125,-1,-1,-1,-1,-1,-1,-1,-1,-1,-1,-1,-1,-1,-1,-1,-1,-1,-1,-1,-1,-1,-1,-1,-1,-1,-1,-1,-1,-1,-1,-1,-1,-1,-1,-1,-1,-1,-1,-1,-1,-1,-1,-1,-1,-1,-1,-1,-1,-1,-1,-1,-1,-1,-1,-1,-1,-1,-1,-1,-1,-1,-1,-1,-1],"loss_changes":[2.2962269E5,1.6320094E5,7.841793E3,1.4993169E5,5.3789062E0,1.4768597E4,6.4726562E0,1.4358019E5,1.7960625E3,5.1757812E0,4.1853027E0,6.5683594E0,4.8192075E3,5.34375E0,5.6591797E0,6.904297E0,1.093115E5,2.0709805E3,6.4414062E0,4.4316406E0,7.501892E0,7.5305176E0,9.862427E0,7.883423E0,7.955078E0,5.9998413E1,4.477099E3,7.734619E0,5.921875E0,6.6073E0,6.5654297E0,5.8183594E0,9.11499E0,9.395044E4,1.038123E3,2.6412617E3,7.6567383E0,6.9351482E0,6.915283E0,6.526367E0,4.2617188E0,5.743149E0,9.507359E0,6.3430176E0,6.3779917E0,6.874634E0,6.330139E0,4.477722E0,6.667145E0,6.7558594E0,7.267578E0,6.3243774E1,5.456314E0,4.1287617E3,4.0531372E1,1.012374E1,7.678711E0,6.4375E0,6.8897552E0,6.4699097E0,5.830261E0,6.260742E0,4.560547E0,0E0,0E0,0E0,0E0,0E0,0E0,0E0,0E0,0E0,0E0,0E0,0E0,0E0,0E0,0E0,0E0,0E0,0E0,0E0,0E0,0E0,0E0,0E0,0E0,0E0,0E0,0E0,0E0,0E0,0E0,0E0,0E0,0E0,0E0,0E0,0E0,0E0,0E0,0E0,0E0,0E0,0E0,0E0,0E0,0E0,0E0,0E0,0E0,0E0,0E0,0E0,0E0,0E0,0E0,0E0,0E0,0E0,0E0,0E0,0E0,0E0,0E0,0E0,0E0],"parents":[2147483647,0,0,1,1,2,2,3,3,4,4,5,5,6,6,7,7,8,8,9,9,10,10,11,11,12,12,13,13,14,14,15,15,16,16,17,17,18,18,19,19,20,20,21,21,22,22,23,23,24,24,25,25,26,26,27,27,28,28,29,29,30,30,31,31,32,32,33,33,34,34,35,35,36,36,37,37,38,38,39,39,40,40,41,41,42,42,43,43,44,44,45,45,46,46,47,47,48,48,49,49,50,50,51,51,52,52,53,53,54,54,55,55,56,56,57,57,58,58,59,59,60,60,61,61,62,62],"right_children":[2,4,6,8,10,12,14,16,18,20,22,24,26,28,30,32,34,36,38,40,42,44,46,48,50,52,54,56,58,60,62,64,66,68,70,72,74,76,78,80,82,84,86,88,90,92,94,96,98,100,102,104,106,108,110,112,114,116,118,120,122,124,126,-1,-1,-1,-1,-1,-1,-1,-1,-1,-1,-1,-1,-1,-1,-1,-1,-1,-1,-1,-1,-1,-1,-1,-1,-1,-1,-1,-1,-1,-1,-1,-1,-1,-1,-1,-1,-1,-1,-1,-1,-1,-1,-1,-1,-1,-1,-1,-1,-1,-1,-1,-1,-1,-1,-1,-1,-1,-1,-1,-1,-1,-1,-1,-1],"split_conditions":[5.139577E-2,1.0937307E0,1.14142396E-1,8.508971E0,1.5130911E0,1.0926886E-1,3.726674E0,6.490755E0,2.509326E2,4.8633236E-2,7.9164023E0,2.3670573E0,6.490755E0,3.930113E-2,1.3027547E-1,4.8151385E2,1.0062458E1,3.2031913E0,1.8646152E0,6.6601443E0,4.1026096E0,7.897722E0,1.4516833E1,2.1771593E0,2.7575684E0,2.509326E2,8.508971E0,1.3743783E0,4.5619382E2,6.921887E-1,1.178156E2,4.1026096E0,3.6597833E2,3.143747E-1,2.509326E2,1.0697227E0,5.1590045E2,1.6735152E0,1.5691667E0,2.2475176E-4,1.10285375E-2,9.884826E-1,1.3934059E2,1.3909311E1,6.3246818E0,9.212411E0,8.64773E0,5.8397395E-4,2.4353783E2,7.088945E0,1.2209727E-2,1.0456759E0,5.582145E-1,3.2031913E0,1.0575886E0,3.140323E-1,4.1488697E1,3.1139603E2,8.024026E-2,4.1026096E0,3.7637658E0,1.409117E-1,3.7542534E0,1.9315971E-1,2.3273343E-1,2.0520389E-1,1.4189373E-1,-3.8588962E-1,3.0029988E-1,3.4552932E-1,1.9503514E-1,4.4960102E-1,1.9961324E-1,2.005703E-1,1.6585506E-1,2.198099E-1,5.4809827E-2,2.9607087E-1,1.9419546E-1,1.950305E-1,2.074746E-1,1.9648516E-1,1.8831883E-1,2.501452E-1,1.3844974E-1,-4.7732115E-1,3.1507012E-1,1.877256E-1,1.4664048E-1,9.497506E-2,-3.5889405E-1,2.0173132E-1,1.6363317E-1,3.2904726E-1,2.0411234E-1,1.7207873E-1,2.1189527E-1,1.760318E-1,1.23611756E-1,2.2667302E-1,1.9978355E-1,2.0988229E-1,1.927421E-1,3.4767452E-1,2.0634282E-1,2.2281447E-1,1.5782186E-1,-2.8228813E-1,2.744978E-1,3.0978382E-1,2.0047884E-1,-3.2433388E-1,1.1856564E-1,1.514238E-1,1.9393356E-1,1.994649E-1,2.137247E-1,2.9275766E-1,1.6206022E-1,2.1845391E-1,4.1836616E-1,6.2891535E-2,1.9147344E-1,2.0039845E-1,1.8317595E-1,1.7151517E-1,1.9696738E-1],"split_indices":[17,11,17,0,13,17,16,0,3,17,0,16,0,13,12,18,2,14,16,0,14,0,2,16,16,3,0,2,15,13,15,14,15,1,3,13,18,14,2,17,17,13,15,2,11,0,0,1,3,0,11,13,13,14,11,5,18,15,5,14,16,13,16,0,0,0,0,0,0,0,0,0,0,0,0,0,0,0,0,0,0,0,0,0,0,0,0,0,0,0,0,0,0,0,0,0,0,0,0,0,0,0,0,0,0,0,0,0,0,0,0,0,0,0,0,0,0,0,0,0,0,0,0,0,0,0,0],"split_type":[0,0,0,0,0,0,0,0,0,0,0,0,0,0,0,0,0,0,0,0,0,0,0,0,0,0,0,0,0,0,0,0,0,0,0,0,0,0,0,0,0,0,0,0,0,0,0,0,0,0,0,0,0,0,0,0,0,0,0,0,0,0,0,0,0,0,0,0,0,0,0,0,0,0,0,0,0,0,0,0,0,0,0,0,0,0,0,0,0,0,0,0,0,0,0,0,0,0,0,0,0,0,0,0,0,0,0,0,0,0,0,0,0,0,0,0,0,0,0,0,0,0,0,0,0,0,0],"sum_hessian":[9.938401E5,8.341455E5,1.5969461E5,7.6298894E5,7.115653E4,4.7721156E4,1.11973445E5,7.2614775E5,3.6841188E4,6.198806E4,9.168471E3,2.7424512E4,2.0296643E4,7.626426E4,3.5709188E4,4.7488785E4,6.78659E5,2.7915725E4,8.925463E3,6.158322E4,4.048424E2,6.180937E3,2.9875337E3,2.3447305E3,2.5079781E4,2.1213826E3,1.817526E4,6.344194E3,6.992007E4,2.360494E3,3.334869E4,3.948722E4,8.001565E3,6.563476E5,2.2311371E4,2.164619E4,6.2695356E3,9.915738E1,8.826306E3,1.6219565E4,4.5363652E4,4.0116028E2,3.6821282E0,6.1247456E3,5.6191425E1,2.8243188E3,1.6321487E2,1.1978738E3,1.1468566E3,3.8044229E3,2.1275357E4,1.6085652E3,5.128174E2,1.6541393E4,1.6338683E3,2.574919E1,6.318445E3,6.926689E4,6.531759E2,1.5356683E3,8.2482556E2,1.1641907E4,2.1706783E4,3.9126645E4,3.605748E2,7.781456E3,2.2010912E2,6.378703E5,1.84773E4,1.6841564E4,5.469808E3,1.671907E4,4.927118E3,5.5935044E3,6.760311E2,3.5810635E1,6.3346745E1,6.3091545E1,8.763214E3,8.229598E3,7.9899683E3,3.7769523E4,7.59413E3,3.493569E2,5.180338E1,2.2091773E0,1.4729509E0,5.7433555E3,3.813904E2,5.4228516E1,1.9629108E0,2.2600005E3,5.643184E2,8.5896194E1,7.731867E1,4.3944162E2,7.5843225E2,8.344838E2,3.1237274E2,1.4678418E3,2.336581E3,2.696506E3,1.8578852E4,1.2303815E3,3.781837E2,2.9809235E2,2.1472502E2,1.524124E4,1.3001519E3,1.2152781E3,4.1859024E2,4.904258E0,2.0844933E1,4.311856E2,5.8872593E3,6.607395E4,3.1929407E3,3.950133E1,6.1367456E2,1.520715E3,1.4953286E1,3.4342625E1,7.90483E2,2.5957532E3,9.046154E3,7.157533E2,2.0991031E4],"tree_param":{"num_deleted":"0","num_feature":"19","num_nodes":"127","size_leaf_vector":"0"}},{"base_weights":[-4.5929602E-1,-6.284948E-1,3.7549934E-1,-7.5164133E-1,6.4535946E-1,1.2655994E-1,4.8129234E-1,-8.420286E-1,8.6935467E-1,6.8899345E-1,4.3203494E-1,4.769474E-1,-3.5069853E-1,4.8382935E-1,4.6252945E-1,-9.216238E-1,9.14986E-1,1.0007205E0,4.7187024E-1,7.568537E-1,4.7813866E-1,5.021368E-1,4.118167E-1,4.7963238E-1,4.0681088E-1,-4.7259542E-1,9.8602265E-1,4.808183E-1,5.059912E-1,4.6522856E-1,1.7038767E-1,-1.0092701E0,5.928518E-1,1.0545882E0,4.9579293E-1,4.7089946E-1,1.1495095E0,4.8273504E-1,3.689824E-1,4.7454196E-1,8.3392787E-1,4.240019E-1,4.8641235E-1,5.095011E-1,-2.1989584E-1,3.8964474E-1,4.5944083E-1,4.7774014E-1,5.7578194E-1,6.5502506E-1,3.7858143E-1,-6.146212E-1,6.6915476E-1,1.0818338E0,6.920462E-1,4.7750437E-1,5.000006E-1,7.713793E-2,5.074352E-1,4.827372E-1,4.4134372E-1,2.6667735E-1,-4.3218556E-1,-3.2446617E-1,1.8936218E-1,-5.6170773E-2,1.9118713E-1,1.3958323E-1,3.6729684E-1,1.3211724E-1,1.5934502E-1,1.3576898E-1,1.6515504E-1,4.8034256E-3,3.7091613E-1,1.0206407E-1,1.4668319E-1,2.6216698E-1,1.04168534E-1,1.4994226E-1,1.3447353E-1,2.796008E-1,1.4325638E-1,1.1449978E-1,1.6693349E-1,1.3156165E-1,1.5010925E-1,8.500916E-2,1.580985E-1,1.682647E-1,-1.782214E-1,1.07650824E-1,1.297115E-1,2.3146361E-1,1.3525972E-1,1.4230911E-1,1.5812597E-1,-7.329746E-2,1.7977217E-1,2.2858639E-1,-7.264949E-3,8.659532E-2,1.3676076E-1,-2.1775159E-1,2.9462093E-1,2.219624E-1,1.1996127E-1,3.582932E-1,1.991615E-1,2.2811058E-1,1.4405008E-1,1.6198646E-1,1.4282712E-1,1.5445867E-1,1.4282604E-1,2.8800425E-1,-4.8970826E-2,1.8378715E-1,1.506767E-1,1.4264983E-1,1.9908601E-1,1.3088517E-1,2.1119833E-1,4.246854E-2,2.5037476E-1,2.581845E-2,-4.357771E-1],"categories":[],"categories_nodes":[],"categories_segments":[],"categories_sizes":[],"default_left":[0,0,0,0,0,0,0,0,0,0,0,0,0,0,0,0,0,0,0,0,0,0,0,0,0,0,0,0,0,0,0,0,0,0,0,0,0,0,0,0,0,0,0,0,0,0,0,0,0,0,0,0,0,0,0,0,0,0,0,0,0,0,0,0,0,0,0,0,0,0,0,0,0,0,0,0,0,0,0,0,0,0,0,0,0,0,0,0,0,0,0,0,0,0,0,0,0,0,0,0,0,0,0,0,0,0,0,0,0,0,0,0,0,0,0,0,0,0,0,0,0,0,0,0,0,0,0],"id":2,"left_children":[1,3,5,7,9,11,13,15,17,19,21,23,25,27,29,31,33,35,37,39,41,43,45,47,49,51,53,55,57,59,61,63,65,67,69,71,73,75,77,79,81,83,85,87,89,91,93,95,97,99,101,103,105,107,109,111,113,115,117,119,121,123,125,-1,-1,-1,-1,-1,-1,-1,-1,-1,-1,-1,-1,-1,-1,-1,-1,-1,-1,-1,-1,-1,-1,-1,-1,-1,-1,-1,-1,-1,-1,-1,-1,-1,-1,-1,-1,-1,-1,-1,-1,-1,-1,-1,-1,-1,-1,-1,-1,-1,-1,-1,-1,-1,-1,-1,-1,-1,-1,-1,-1,-1,-1,-1,-1],"loss_changes":[1.2893331E5,1.1906375E5,4.0513418E3,1.0140331E5,6.224785E2,7.6724756E3,4.9160156E0,9.167703E4,1.9081836E3,7.9438477E2,1.5899658E1,4.786621E0,3.1654688E3,6.1015625E0,1.0078125E1,8.324381E4,1.662041E3,2.165164E3,9.973755E0,9.1386914E2,5.852295E0,1.3613892E1,9.140137E0,4.3598633E0,6.633362E0,2.887065E3,4.4981934E1,5.0820312E0,6.990967E0,5.1242676E0,7.0487638E0,7.029675E4,1.1894502E3,2.1311504E3,1.3672974E1,8.546875E0,2.1121152E3,7.0996094E0,9.270607E0,5.7646484E0,1.1532422E3,9.885651E0,7.612793E0,9.795837E0,8.027193E0,7.7807007E0,7.140686E0,3.9135742E0,9.5121765E0,7.2028503E0,6.013756E0,2.8122651E3,3.721808E1,5.668921E1,5.4522705E0,6.048828E0,4.130371E0,8.492211E0,5.8569336E0,9.312012E0,6.8826904E0,7.2467623E0,9.033644E0,0E0,0E0,0E0,0E0,0E0,0E0,0E0,0E0,0E0,0E0,0E0,0E0,0E0,0E0,0E0,0E0,0E0,0E0,0E0,0E0,0E0,0E0,0E0,0E0,0E0,0E0,0E0,0E0,0E0,0E0,0E0,0E0,0E0,0E0,0E0,0E0,0E0,0E0,0E0,0E0,0E0,0E0,0E0,0E0,0E0,0E0,0E0,0E0,0E0,0E0,0E0,0E0,0E0,0E0,0E0,0E0,0E0,0E0,0E0,0E0,0E0,0E0,0E0,0E0],"parents":[2147483647,0,0,1,1,2,2,3,3,4,4,5,5,6,6,7,7,8,8,9,9,10,10,11,11,12,12,13,13,14,14,15,15,16,16,17,17,18,18,19,19,20,20,21,21,22,22,23,23,24,24,25,25,26,26,27,27,28,28,29,29,30,30,31,31,32,32,33,33,34,34,35,35,36,36,37,37,38,38,39,39,40,40,41,41,42,42,43,43,44,44,45,45,46,46,47,47,48,48,49,49,50,50,51,51,52,52,53,53,54,54,55,55,56,56,57,57,58,58,59,59,60,60,61,61,62,62],"right_children":[2,4,6,8,10,12,14,16,18,20,22,24,26,28,30,32,34,36,38,40,42,44,46,48,50,52,54,56,58,60,62,64,66,68,70,72,74,76,78,80,82,84,86,88,90,92,94,96,98,100,102,104,106,108,110,112,114,116,118,120,122,124,126,-1,-1,-1,-1,-1,-1,-1,-1,-1,-1,-1,-1,-1,-1,-1,-1,-1,-1,-1,-1,-1,-1,-1,-1,-1,-1,-1,-1,-1,-1,-1,-1,-1,-1,-1,-1,-1,-1,-1,-1,-1,-1,-1,-1,-1,-1,-1,-1,-1,-1,-1,-1,-1,-1,-1,-1,-1,-1,-1,-1,-1,-1,-1,-1],"split_conditions":[5.139577E-2,2.509326E2,1.14142396E-1,4.1981816E0,3.143747E-1,1.0926886E-1,2.3716166E0,2.036831E0,1.0937307E0,1.0937307E0,6.508483E0,2.5687275E0,1.0062458E1,3.632511E0,6.3246818E0,1.0456759E0,1.0937307E0,6.490755E0,8.984163E0,6.490755E0,7.677798E1,4.939556E0,8.207298E0,5.6920593E2,2.9479375E0,1.0937307E0,1.0937307E0,8.64773E0,6.456684E1,3.474483E0,1.0962546E1,3.2031913E0,1.0697227E0,6.490755E0,1.7001549E0,2.701219E-1,4.228594E0,8.8479966E-2,4.228594E0,9.6452034E-1,8.508971E0,3.5910287E2,4.0050917E0,4.1488697E1,2.9035382E0,6.710679E0,2.052747E0,1.3909311E1,6.472574E-3,3.83865E-1,2.7417853E2,3.143747E-1,3.2031913E0,2.6050504E2,3.0096984E0,5.1744225E1,2.8747274E-2,3.3975326E-2,5.3878164E0,5.585373E2,9.902266E0,1E0,1.5780767E-37,-3.2446617E-1,1.8936218E-1,-5.6170773E-2,1.9118713E-1,1.3958323E-1,3.6729684E-1,1.3211724E-1,1.5934502E-1,1.3576898E-1,1.6515504E-1,4.8034256E-3,3.7091613E-1,1.0206407E-1,1.4668319E-1,2.6216698E-1,1.04168534E-1,1.4994226E-1,1.3447353E-1,2.796008E-1,1.4325638E-1,1.1449978E-1,1.6693349E-1,1.3156165E-1,1.5010925E-1,8.500916E-2,1.580985E-1,1.682647E-1,-1.782214E-1,1.07650824E-1,1.297115E-1,2.3146361E-1,1.3525972E-1,1.4230911E-1,1.5812597E-1,-7.329746E-2,1.7977217E-1,2.2858639E-1,-7.264949E-3,8.659532E-2,1.3676076E-1,-2.1775159E-1,2.9462093E-1,2.219624E-1,1.1996127E-1,3.582932E-1,1.991615E-1,2.2811058E-1,1.4405008E-1,1.6198646E-1,1.4282712E-1,1.5445867E-1,1.4282604E-1,2.8800425E-1,-4.8970826E-2,1.8378715E-1,1.506767E-1,1.4264983E-1,1.9908601E-1,1.3088517E-1,2.1119833E-1,4.246854E-2,2.5037476E-1,2.581845E-2,-4.357771E-1],"split_indices":[17,3,17,16,1,17,12,12,11,11,0,13,2,14,11,13,11,0,0,0,18,12,0,18,2,11,11,0,3,16,2,14,13,0,14,1,16,12,16,12,0,3,2,18,16,2,2,2,13,1,18,1,14,3,14,15,1,11,0,18,0,6,4,0,0,0,0,0,0,0,0,0,0,0,0,0,0,0,0,0,0,0,0,0,0,0,0,0,0,0,0,0,0,0,0,0,0,0,0,0,0,0,0,0,0,0,0,0,0,0,0,0,0,0,0,0,0,0,0,0,0,0,0,0,0,0,0],"split_type":[0,0,0,0,0,0,0,0,0,0,0,0,0,0,0,0,0,0,0,0,0,0,0,0,0,0,0,0,0,0,0,0,0,0,0,0,0,0,0,0,0,0,0,0,0,0,0,0,0,0,0,0,0,0,0,0,0,0,0,0,0,0,0,0,0,0,0,0,0,0,0,0,0,0,0,0,0,0,0,0,0,0,0,0,0,0,0,0,0,0,0,0,0,0,0,0,0,0,0,0,0,0,0,0,0,0,0,0,0,0,0,0,0,0,0,0,0,0,0,0,0,0,0,0,0,0,0],"sum_hessian":[9.1282294E5,7.58989E5,1.538339E5,6.9208406E5,6.6904984E4,4.5879043E4,1.0795487E5,6.555318E5,3.655221E4,5.5542027E4,1.1362952E4,2.6455953E4,1.942309E4,9.507465E4,1.2880219E4,6.2712275E5,2.840905E4,2.7471543E4,9.080668E3,4.2016953E4,1.3525075E4,2.5382705E3,8.824682E3,2.5474879E4,9.810744E2,1.7800492E4,1.6225975E3,8.372233E4,1.1352326E4,1.276172E4,1.1849881E2,5.928155E5,3.4307293E4,2.1310566E4,7.098485E3,6.024203E3,2.144734E4,8.210013E3,8.7065594E2,9.0125205E3,3.3004434E4,1.7999323E3,1.1725143E4,2.5129346E3,2.533592E1,6.0276323E3,2.7970498E3,2.4989059E4,4.8582123E2,9.7916466E1,8.8315796E2,1.5831611E4,1.968881E3,1.2217362E3,4.0086136E2,7.141124E4,1.2311087E4,3.8277557E1,1.1314049E4,7.352668E3,5.409052E3,1.0265262E2,1.584619E1,5.677972E5,2.5018295E4,1.8488499E3,3.2458441E4,4.7662173E3,1.654435E4,2.7706025E3,4.327882E3,4.901949E3,1.122254E3,1.5269023E3,1.9920438E4,3.4506433E2,7.864948E3,3.434479E1,8.3631116E2,4.587209E3,4.4253115E3,2.5880979E4,7.1234536E3,1.3668839E3,4.3304834E2,2.653262E3,9.071881E3,1.8167598E2,2.3312585E3,8.046534E0,1.7289385E1,3.5077375E3,2.5198945E3,7.241538E1,2.7246345E3,2.339865E4,1.5904071E3,1.3248329E1,4.725729E2,8.449333E1,1.342313E1,4.103814E2,4.7277652E2,1.4801182E4,1.0304297E3,1.5579747E3,4.1090628E2,9.612097E2,2.6052652E2,3.0116077E2,9.97006E1,1.5726644E3,6.983858E4,7.579902E3,4.731185E3,7.5506687E0,3.0726889E1,5.254607E2,1.0788588E4,7.073267E3,2.794008E2,5.3094297E3,9.9622505E1,8.51438E1,1.7508816E1,1.1116141E1,4.730049E0],"tree_param":{"num_deleted":"0","num_feature":"19","num_nodes":"127","size_leaf_vector":"0"}},{"base_weights":[-3.6707726E-1,-4.7473323E-1,5.749238E-1,-5.880832E-1,4.4352937E-1,6.684545E-1,3.817125E-1,-6.914698E-1,4.6259183E-1,4.8441806E-1,3.6262822E-1,7.2724825E-1,4.432352E-1,4.8791614E-1,3.4572873E-1,-7.6977485E-1,6.6221356E-1,4.9343747E-1,3.1181455E-1,5.286619E-1,3.2052946E-1,2.6047534E-1,3.6643702E-1,7.9939294E-1,4.4187087E-1,4.89368E-1,2.0833953E-1,3.5700497E-1,8.2967806E-1,2.6938772E-1,3.5397807E-1,4.8003098E-1,-8.689973E-1,7.971949E-1,3.9721408E-1,5.297462E-1,3.1154552E-1,1.4975497E-1,3.189956E-1,5.81036E-1,3.3376867E-1,3.351881E-1,2.7125895E-1,2.0150119E-1,4.658866E-1,4.252642E-1,3.6075363E-1,8.923824E-1,4.66133E-1,4.8573086E-1,2.1895906E-1,5.413031E-1,2.3334095E-1,1.9013181E-1,4.0082973E-1,-3.7536559E-1,3.596164E-1,9.403283E-1,4.8131037E-1,2.030487E-1,3.6137488E-1,3.705471E-1,3.2730344E-1,1.5679206E-1,1.056534E-1,-2.7748546E-1,3.0504435E-1,2.8118652E-1,7.880606E-2,1.4469837E-1,1.1071559E-1,1.7595783E-1,1.0728059E-1,7.999656E-2,1.11151606E-1,2.6787126E-1,2.8904198E-2,8.782725E-2,1.0733026E-1,1.9452484E-1,1.0546776E-1,1.12602346E-1,9.2419066E-2,9.197511E-2,1.1074025E-1,8.297272E-2,-6.369265E-2,8.843162E-2,1.4403314E-2,1.0170376E-2,1.6843607E-1,1.1339768E-1,1.5648833E-1,1.07129656E-1,1.3619883E-1,2.5436875E-1,3.8301083E-1,1.5124315E-1,8.4106244E-2,1.5941387E-1,7.840626E-2,2.3592087E-2,8.537093E-2,9.390232E-2,1.8002619E-1,5.6705367E-2,1.0717885E-1,4.512961E-2,8.6074494E-2,7.668263E-2,2.0163572E-1,6.940245E-2,-2.882503E-1,5.528931E-2,1.1059644E-1,3.000479E-1,2.0352171E-1,1.3112888E-1,2.4845938E-1,1.0828062E-1,4.8277732E-2,1.1624192E-1,-2.2308733E-2,8.5235E-2,1.1420823E-1,1.072624E-1,8.449826E-2],"categories":[],"categories_nodes":[],"categories_segments":[],"categories_sizes":[],"default_left":[0,0,0,0,0,0,0,0,0,0,0,0,0,0,0,0,0,0,0,0,0,0,0,0,0,0,0,0,0,0,0,0,0,0,0,0,0,0,0,0,0,0,0,0,0,0,0,0,0,0,0,0,0,0,0,0,0,0,0,0,0,0,0,0,0,0,0,0,0,0,0,0,0,0,0,0,0,0,0,0,0,0,0,0,0,0,0,0,0,0,0,0,0,0,0,0,0,0,0,0,0,0,0,0,0,0,0,0,0,0,0,0,0,0,0,0,0,0,0,0,0,0,0,0,0,0,0],"id":3,"left_children":[1,3,5,7,9,11,13,15,17,19,21,23,25,27,29,31,33,35,37,39,41,43,45,47,49,51,53,55,57,59,61,63,65,67,69,71,73,75,77,79,81,83,85,87,89,91,93,95,97,99,101,103,105,107,109,111,113,115,117,119,121,123,125,-1,-1,-1,-1,-1,-1,-1,-1,-1,-1,-1,-1,-1,-1,-1,-1,-1,-1,-1,-1,-1,-1,-1,-1,-1,-1,-1,-1,-1,-1,-1,-1,-1,-1,-1,-1,-1,-1,-1,-1,-1,-1,-1,-1,-1,-1,-1,-1,-1,-1,-1,-1,-1,-1,-1,-1,-1,-1,-1,-1,-1,-1,-1,-1],"loss_changes":[8.411448E4,7.747719E4,1.5370488E3,7.197294E4,2.7037598E2,7.5867773E2,1.058833E2,6.394175E4,2.7590527E2,3.9375488E2,1.0590088E1,9.3544336E2,1.2850806E2,3.1380383E2,1.2960449E1,7.071431E4,1.1795977E3,3.252588E2,1.1687134E1,4.364414E2,8.251587E0,1.1906387E1,8.69751E0,1.1238652E3,8.9588135E1,1.3176904E2,6.758209E0,9.846619E0,7.446875E1,1.2289368E1,8.146484E0,2.2830273E2,5.5745844E4,1.6361553E3,2.6509521E1,4.0126074E2,2.1609009E1,1.6970325E1,9.717163E0,5.2107227E2,9.569275E0,8.527039E0,6.8818054E0,1.1029465E1,9.071835E0,1.0401703E1,8.066895E0,4.8385352E2,5.5763184E1,7.836951E1,1.3880562E1,1.1047168E2,9.130188E0,6.809166E0,6.431532E0,6.804718E0,7.9506226E0,2.2421753E1,6.8554153E0,7.7852135E0,9.667381E0,1.0004883E1,9.803162E0,0E0,0E0,0E0,0E0,0E0,0E0,0E0,0E0,0E0,0E0,0E0,0E0,0E0,0E0,0E0,0E0,0E0,0E0,0E0,0E0,0E0,0E0,0E0,0E0,0E0,0E0,0E0,0E0,0E0,0E0,0E0,0E0,0E0,0E0,0E0,0E0,0E0,0E0,0E0,0E0,0E0,0E0,0E0,0E0,0E0,0E0,0E0,0E0,0E0,0E0,0E0,0E0,0E0,0E0,0E0,0E0,0E0,0E0,0E0,0E0,0E0,0E0,0E0,0E0],"parents":[2147483647,0,0,1,1,2,2,3,3,4,4,5,5,6,6,7,7,8,8,9,9,10,10,11,11,12,12,13,13,14,14,15,15,16,16,17,17,18,18,19,19,20,20,21,21,22,22,23,23,24,24,25,25,26,26,27,27,28,28,29,29,30,30,31,31,32,32,33,33,34,34,35,35,36,36,37,37,38,38,39,39,40,40,41,41,42,42,43,43,44,44,45,45,46,46,47,47,48,48,49,49,50,50,51,51,52,52,53,53,54,54,55,55,56,56,57,57,58,58,59,59,60,60,61,61,62,62],"right_children":[2,4,6,8,10,12,14,16,18,20,22,24,26,28,30,32,34,36,38,40,42,44,46,48,50,52,54,56,58,60,62,64,66,68,70,72,74,76,78,80,82,84,86,88,90,92,94,96,98,100,102,104,106,108,110,112,114,116,118,120,122,124,126,-1,-1,-1,-1,-1,-1,-1,-1,-1,-1,-1,-1,-1,-1,-1,-1,-1,-1,-1,-1,-1,-1,-1,-1,-1,-1,-1,-1,-1,-1,-1,-1,-1,-1,-1,-1,-1,-1,-1,-1,-1,-1,-1,-1,-1,-1,-1,-1,-1,-1,-1,-1,-1,-1,-1,-1,-1,-1,-1,-1,-1,-1,-1,-1],"split_conditions":[1E0,1.0937307E0,5.139577E-2,2.509326E2,5.139577E-2,1.0697227E0,1.14142396E-1,8.508971E0,3.143747E-1,1.0697227E0,5.262869E0,3.2031913E0,1.0062458E1,1.0926886E-1,2.4049988E0,6.490755E0,5.139577E-2,1.0062458E1,2.4874968E1,3.2031913E0,2.0092325E2,2.5401845E2,3.8111055E-1,2.509326E2,1.0062458E1,3.0267486E-1,2.718792E2,2.5247501E-2,1.0575886E0,6.7443457E0,3.006605E-2,1.14142396E-1,5.0017114E2,3.2031913E0,1.14142396E-1,1.14142396E-1,1.6367605E-2,2.7718952E0,2.488218E-2,2.509326E2,5.183916E0,1.9642686E2,4.6792686E-2,3.6100034E2,2.9089826E-1,1.329486E0,3.8769208E2,2.5199202E2,9.979809E0,3.0267486E-1,1.1507593E1,6.4532495E0,1.0742308E0,8.051642E0,2.2120422E2,7.191008E-2,6.294476E-2,2.4084727E-1,1.6412863E0,3.2049282E0,5.0346146E0,5.4036178E-2,3.620983E0,1.5679206E-1,1.056534E-1,-2.7748546E-1,3.0504435E-1,2.8118652E-1,7.880606E-2,1.4469837E-1,1.1071559E-1,1.7595783E-1,1.0728059E-1,7.999656E-2,1.11151606E-1,2.6787126E-1,2.8904198E-2,8.782725E-2,1.0733026E-1,1.9452484E-1,1.0546776E-1,1.12602346E-1,9.2419066E-2,9.197511E-2,1.1074025E-1,8.297272E-2,-6.369265E-2,8.843162E-2,1.4403314E-2,1.0170376E-2,1.6843607E-1,1.1339768E-1,1.5648833E-1,1.07129656E-1,1.3619883E-1,2.5436875E-1,3.8301083E-1,1.5124315E-1,8.4106244E-2,1.5941387E-1,7.840626E-2,2.3592087E-2,8.537093E-2,9.390232E-2,1.8002619E-1,5.6705367E-2,1.0717885E-1,4.512961E-2,8.6074494E-2,7.668263E-2,2.0163572E-1,6.940245E-2,-2.882503E-1,5.528931E-2,1.1059644E-1,3.000479E-1,2.0352171E-1,1.3112888E-1,2.4845938E-1,1.0828062E-1,4.8277732E-2,1.1624192E-1,-2.2308733E-2,8.5235E-2,1.1420823E-1,1.072624E-1,8.449826E-2],"split_indices":[10,11,17,3,17,13,17,0,1,13,0,14,2,17,16,0,17,2,18,14,15,3,14,3,2,1,15,14,11,2,1,17,18,14,17,17,17,2,17,3,2,3,17,18,5,12,3,15,2,1,2,0,11,0,3,17,5,1,13,2,5,13,16,0,0,0,0,0,0,0,0,0,0,0,0,0,0,0,0,0,0,0,0,0,0,0,0,0,0,0,0,0,0,0,0,0,0,0,0,0,0,0,0,0,0,0,0,0,0,0,0,0,0,0,0,0,0,0,0,0,0,0,0,0,0,0,0],"split_type":[0,0,0,0,0,0,0,0,0,0,0,0,0,0,0,0,0,0,0,0,0,0,0,0,0,0,0,0,0,0,0,0,0,0,0,0,0,0,0,0,0,0,0,0,0,0,0,0,0,0,0,0,0,0,0,0,0,0,0,0,0,0,0,0,0,0,0,0,0,0,0,0,0,0,0,0,0,0,0,0,0,0,0,0,0,0,0,0,0,0,0,0,0,0,0,0,0,0,0,0,0,0,0,0,0,0,0,0,0,0,0,0,0,0,0,0,0,0,0,0,0,0,0,0,0,0,0],"sum_hessian":[8.294291E5,7.443608E5,8.5068305E4,6.625734E5,8.1787414E4,5.7318707E4,2.7749596E4,6.0321706E5,5.935631E4,5.4325492E4,2.7461922E4,4.5451355E4,1.1867351E4,7.019492E3,2.0730102E4,5.7023194E5,3.2985168E4,4.9273742E4,1.0082569E4,4.2775477E4,1.1550017E4,9.896149E2,2.6472307E4,3.6278246E4,9.17311E3,9.918337E3,1.9490144E3,5.0768574E3,1.9426348E3,2.0249025E3,1.87052E4,4.1940867E4,5.2829106E5,2.1852348E4,1.1132822E4,4.1072977E4,8.200765E3,4.2874103E2,9.653828E3,3.371357E4,9.061903E3,8.897184E3,2.652833E3,7.704092E2,2.1920576E2,2.3257112E3,2.4146596E4,2.8362572E4,7.9156753E3,7.6639727E3,1.5091375E3,8.24477E3,1.673567E3,1.7824039E3,1.6661043E2,1.7531218E1,5.059326E3,1.4730564E3,4.6957834E2,1.1783274E3,8.4657513E2,1.1530248E4,7.174951E3,3.1454902E4,1.0485965E4,5.1306822E5,1.5222816E4,1.7313707E4,4.538641E3,2.763781E3,8.369042E3,3.0883857E4,1.0189119E4,4.6590337E3,3.5417312E3,2.7692373E1,4.0104865E2,5.762635E3,3.8911936E3,2.6059906E4,7.6536655E3,3.4571353E3,5.604768E3,4.8339316E3,4.0632522E3,2.624406E3,2.842706E1,4.786369E2,2.9177228E2,3.9954884E1,1.7925087E2,1.5635974E3,7.6211383E2,2.3240482E4,9.0611346E2,2.5422973E4,2.9395989E3,6.5697705E3,1.345905E3,6.367215E3,1.296758E3,4.81523E2,1.0276144E3,1.689544E3,6.5552256E3,1.2345364E3,4.3903067E2,1.2657544E3,5.1664954E2,1.0978486E2,5.682557E1,8.906494E0,8.624723E0,2.4909018E2,4.8102363E3,1.1968416E3,2.7621484E2,4.1849698E2,5.1081383E1,2.4656714E2,9.317602E2,7.9884E2,4.7735138E1,1.2144832E3,1.0315766E4,4.3116694E3,2.8632817E3],"tree_param":{"num_deleted":"0","num_feature":"19","num_nodes":"127","size_leaf_vector":"0"}},{"base_weights":[-2.9247558E-1,-4.281983E-1,2.6714632E-1,-5.202491E-1,4.679735E-1,1.0410236E-1,3.3898106E-1,-5.991431E-1,5.952528E-1,5.152098E-1,3.0504513E-1,2.7997577E-1,-1.8284011E-1,3.5911286E-1,2.0589279E-1,-6.877431E-1,4.9630144E-1,7.0573467E-1,2.2670706E-1,2.991427E-1,5.671976E-1,3.336373E-1,1.539823E-1,-7.412031E-2,3.2240888E-1,-2.9196078E-1,8.984184E-1,2.4948132E-1,3.8909614E-1,1.5885529E-1,2.3201603E-1,-7.591373E-1,6.830283E-1,1.9821334E-1,5.753899E-1,8.294106E-1,2.4487473E-1,2.1077843E-1,2.9145986E-1,3.3692837E-1,8.88058E-2,5.278298E-1,8.56709E-1,3.8274112E-1,2.1326904E-1,1.7122042E-1,-1.4035854E-1,-1.6504672E-1,5.693896E-1,3.4624106E-1,2.049589E-1,-3.9524558E-1,9.112705E-1,1.0825323E0,3.568355E-1,2.5096193E-1,6.1117753E-2,4.2824328E-1,2.63793E-1,2.525513E-1,1.3044293E-1,1.1456103E-1,2.4351715E-1,-2.5004143E-1,1.5793729E-1,2.4578969E-1,6.742427E-2,5.346547E-2,7.630061E-2,2.0248796E-1,5.9184745E-2,2.9423088E-1,7.683396E-2,8.269401E-2,9.967972E-3,3.2688074E-2,6.879267E-2,1.5679566E-2,9.382697E-2,1.12295896E-1,7.3706985E-2,3.939653E-2,-2.4854356E-2,1.4828981E-1,2.4711312E-1,2.9772624E-1,1.13037415E-1,1.2916267E-1,6.368674E-2,8.519709E-2,5.2663576E-2,4.770771E-2,1.3686353E-1,-2.5413033E-2,-3.814039E-1,-8.540398E-2,1.3131304E-1,2.0250334E-1,4.8646815E-2,6.598607E-2,1.155287E-1,1.5118578E-1,5.996314E-2,-1.5297043E-1,1.8368624E-1,3.2042354E-1,1.24095924E-1,3.6840123E-1,1.8661536E-1,1.2690124E-1,-1.9560024E-2,7.348768E-2,8.849503E-2,-2.835555E-1,3.5083946E-2,1.4306284E-1,7.878901E-2,9.1997966E-2,7.676918E-2,1.3150223E-1,6.519458E-2,3.0003166E-2,6.9219805E-2,3.862255E-2,-1.628147E-1,6.09562E-2,8.055132E-2],"categories":[],"categories_nodes":[],"categories_segments":[],"categories_sizes":[],"default_left":[0,0,0,0,0,0,0,0,0,0,0,0,0,0,0,0,0,0,0,0,0,0,0,0,0,0,0,0,0,0,0,0,0,0,0,0,0,0,0,0,0,0,0,0,0,0,0,0,0,0,0,0,0,0,0,0,0,0,0,0,0,0,0,0,0,0,0,0,0,0,0,0,0,0,0,0,0,0,0,0,0,0,0,0,0,0,0,0,0,0,0,0,0,0,0,0,0,0,0,0,0,0,0,0,0,0,0,0,0,0,0,0,0,0,0,0,0,0,0,0,0,0,0,0,0,0,0],"id":4,"left_children":[1,3,5,7,9,11,13,15,17,19,21,23,25,27,29,31,33,35,37,39,41,43,45,47,49,51,53,55,57,59,61,63,65,67,69,71,73,75,77,79,81,83,85,87,89,91,93,95,97,99,101,103,105,107,109,111,113,115,117,119,121,123,125,-1,-1,-1,-1,-1,-1,-1,-1,-1,-1,-1,-1,-1,-1,-1,-1,-1,-1,-1,-1,-1,-1,-1,-1,-1,-1,-1,-1,-1,-1,-1,-1,-1,-1,-1,-1,-1,-1,-1,-1,-1,-1,-1,-1,-1,-1,-1,-1,-1,-1,-1,-1,-1,-1,-1,-1,-1,-1,-1,-1,-1,-1,-1,-1],"loss_changes":[5.75044E4,5.026536E4,1.7307627E3,4.862972E4,4.366582E2,2.2809548E3,2.7477148E2,5.008808E4,1.4860098E3,4.9406934E2,5.505835E1,4.2107104E2,2.0268053E3,2.9278906E2,1.652771E1,4.672636E4,9.102969E2,1.6003252E3,8.622772E0,6.780847E1,4.0375684E2,6.3325073E1,1.03366585E1,1.756022E2,6.99729E1,1.9393247E3,1.566355E2,5.3221436E0,3.4308008E2,1.278952E1,1.1677277E1,4.3368766E4,1.4759316E3,9.04306E0,1.1488555E3,1.920834E3,3.8694946E1,1.2731201E1,8.437958E0,2.4591675E1,9.507131E0,3.0934863E2,2.7601636E2,6.1979614E1,8.248764E0,6.601921E0,7.004092E0,1.8969711E2,1.5873131E1,1.0198389E2,6.316681E0,1.6602637E3,9.582483E1,7.792761E1,1.1226063E1,4.9455566E0,8.570159E0,4.2922852E2,5.5594482E0,7.234665E0,1.1263298E1,7.2904778E0,7.897705E0,0E0,0E0,0E0,0E0,0E0,0E0,0E0,0E0,0E0,0E0,0E0,0E0,0E0,0E0,0E0,0E0,0E0,0E0,0E0,0E0,0E0,0E0,0E0,0E0,0E0,0E0,0E0,0E0,0E0,0E0,0E0,0E0,0E0,0E0,0E0,0E0,0E0,0E0,0E0,0E0,0E0,0E0,0E0,0E0,0E0,0E0,0E0,0E0,0E0,0E0,0E0,0E0,0E0,0E0,0E0,0E0,0E0,0E0,0E0,0E0,0E0,0E0,0E0,0E0],"parents":[2147483647,0,0,1,1,2,2,3,3,4,4,5,5,6,6,7,7,8,8,9,9,10,10,11,11,12,12,13,13,14,14,15,15,16,16,17,17,18,18,19,19,20,20,21,21,22,22,23,23,24,24,25,25,26,26,27,27,28,28,29,29,30,30,31,31,32,32,33,33,34,34,35,35,36,36,37,37,38,38,39,39,40,40,41,41,42,42,43,43,44,44,45,45,46,46,47,47,48,48,49,49,50,50,51,51,52,52,53,53,54,54,55,55,56,56,57,57,58,58,59,59,60,60,61,61,62,62],"right_children":[2,4,6,8,10,12,14,16,18,20,22,24,26,28,30,32,34,36,38,40,42,44,46,48,50,52,54,56,58,60,62,64,66,68,70,72,74,76,78,80,82,84,86,88,90,92,94,96,98,100,102,104,106,108,110,112,114,116,118,120,122,124,126,-1,-1,-1,-1,-1,-1,-1,-1,-1,-1,-1,-1,-1,-1,-1,-1,-1,-1,-1,-1,-1,-1,-1,-1,-1,-1,-1,-1,-1,-1,-1,-1,-1,-1,-1,-1,-1,-1,-1,-1,-1,-1,-1,-1,-1,-1,-1,-1,-1,-1,-1,-1,-1,-1,-1,-1,-1,-1,-1,-1,-1,-1,-1,-1],"split_conditions":[4.8633236E-2,1E0,1.14142396E-1,1.0062458E1,1.0937307E0,1.0926886E-1,5.0017114E2,3.2031913E0,2.509326E2,6.490755E0,4.228594E0,5.139577E-2,4.1981816E0,6.490755E0,1.4687783E-1,3.143747E-1,6.490755E0,3.2031913E0,8.4263735E0,2.095498E0,5.0017114E2,2.882218E0,1.3300685E0,1E0,8.508971E0,2.036831E0,1.0742308E0,4.9601495E2,1.0937307E0,6.519718E0,7.2981316E1,1.0697227E0,2.509326E2,1.0416366E0,8.508971E0,1.0697227E0,4.9808655E2,8.683191E-2,4.2927875E-3,2.3317244E2,2.1251387E2,2.5199202E2,1.0697227E0,1.0456759E0,1.6502298E2,8.097708E-1,2.5687275E0,1E0,2.5718277E2,6.4143524E0,8.215399E-2,1.0456759E0,1.0937307E0,2.497126E2,8.69629E0,1.5744438E0,6.484235E1,2.509326E2,7.677798E1,1.3001613E2,8.508971E0,4.3780786E2,5.183916E0,-2.5004143E-1,1.5793729E-1,2.4578969E-1,6.742427E-2,5.346547E-2,7.630061E-2,2.0248796E-1,5.9184745E-2,2.9423088E-1,7.683396E-2,8.269401E-2,9.967972E-3,3.2688074E-2,6.879267E-2,1.5679566E-2,9.382697E-2,1.12295896E-1,7.3706985E-2,3.939653E-2,-2.4854356E-2,1.4828981E-1,2.4711312E-1,2.9772624E-1,1.13037415E-1,1.2916267E-1,6.368674E-2,8.519709E-2,5.2663576E-2,4.770771E-2,1.3686353E-1,-2.5413033E-2,-3.814039E-1,-8.540398E-2,1.3131304E-1,2.0250334E-1,4.8646815E-2,6.598607E-2,1.155287E-1,1.5118578E-1,5.996314E-2,-1.5297043E-1,1.8368624E-1,3.2042354E-1,1.24095924E-1,3.6840123E-1,1.8661536E-1,1.2690124E-1,-1.9560024E-2,7.348768E-2,8.849503E-2,-2.835555E-1,3.5083946E-2,1.4306284E-1,7.878901E-2,9.1997966E-2,7.676918E-2,1.3150223E-1,6.519458E-2,3.0003166E-2,6.9219805E-2,3.862255E-2,-1.628147E-1,6.09562E-2,8.055132E-2],"split_indices":[17,10,17,2,11,17,18,14,3,0,16,17,16,0,11,1,0,14,0,12,18,14,1,10,0,12,11,18,11,0,15,13,3,11,0,13,18,13,11,3,15,15,13,13,3,1,13,7,3,0,14,13,11,3,0,13,15,3,18,3,0,3,2,0,0,0,0,0,0,0,0,0,0,0,0,0,0,0,0,0,0,0,0,0,0,0,0,0,0,0,0,0,0,0,0,0,0,0,0,0,0,0,0,0,0,0,0,0,0,0,0,0,0,0,0,0,0,0,0,0,0,0,0,0,0,0,0],"split_type":[0,0,0,0,0,0,0,0,0,0,0,0,0,0,0,0,0,0,0,0,0,0,0,0,0,0,0,0,0,0,0,0,0,0,0,0,0,0,0,0,0,0,0,0,0,0,0,0,0,0,0,0,0,0,0,0,0,0,0,0,0,0,0,0,0,0,0,0,0,0,0,0,0,0,0,0,0,0,0,0,0,0,0,0,0,0,0,0,0,0,0,0,0,0,0,0,0,0,0,0,0,0,0,0,0,0,0,0,0,0,0,0,0,0,0,0,0,0,0,0,0,0,0,0,0,0,0],"sum_hessian":[7.570984E5,6.0932225E5,1.4777611E5,5.5256556E5,5.6756684E4,4.5196246E4,1.0257986E5,5.160672E5,3.649841E4,4.3998457E4,1.2758226E4,2.802136E4,1.7174889E4,8.910028E4,1.3479583E4,4.7745106E5,3.8616098E4,2.8079795E4,8.418613E3,8.534574E3,3.5463887E4,1.0726732E4,2.0314928E3,2.9985234E3,2.5022836E4,1.5601149E4,1.5737389E3,1.9136916E4,6.996336E4,4.815632E3,8.66395E3,4.5381538E5,2.3635693E4,8.0979736E3,3.0518125E4,2.2138049E4,5.941747E3,6.7599736E3,1.6586398E3,7.2343647E3,1.3002092E3,3.1221244E4,4.2426406E3,7.6171587E3,3.1095735E3,1.9194956E3,1.1199729E2,2.6279448E3,3.7057877E2,2.080024E4,4.222596E3,1.436844E4,1.2327084E3,1.173726E3,4.00013E2,1.8987336E4,1.4957909E2,5.3306844E4,1.6656518E4,1.118673E3,3.696959E3,7.736838E2,7.8902666E3,4.2901003E5,2.480536E4,1.8217807E4,5.4178877E3,5.973806E3,2.1241675E3,2.4156123E4,6.3620015E3,1.7513514E4,4.624535E3,5.1872583E3,7.5448846E2,1.041915E3,5.7180586E3,1.3588605E2,1.5227538E3,5.1292114E3,2.1051533E3,1.042286E3,2.5792322E2,2.804566E4,3.175585E3,3.306544E3,9.3609674E2,5.9476816E3,1.6694773E3,1.0794282E3,2.0301453E3,1.8422251E3,7.727044E1,1.0776956E2,4.227728E0,2.1931777E3,4.3476706E2,2.9373663E2,7.684212E1,4.8954414E3,1.5904798E4,6.892834E1,4.153668E3,1.2900837E4,1.4676033E3,9.364655E2,2.9624292E2,8.906816E2,2.8304437E2,3.457954E2,5.4217583E1,1.6714613E4,2.2727239E3,7.0249815E0,1.4255411E2,4.120499E4,1.21018545E4,2.5849036E3,1.4071613E4,1.7651582E2,9.421571E2,2.8378315E3,8.591274E2,7.5813116E2,1.5552625E1,3.0219387E3,4.868328E3],"tree_param":{"num_deleted":"0","num_feature":"19","num_nodes":"127","size_leaf_vector":"0"}},{"base_weights":[-2.3246619E-1,-3.0477104E-1,4.3855414E-1,-3.953737E-1,3.1231508E-1,5.14698E-1,2.0024234E-1,-4.6874848E-1,5.2778476E-1,3.6080647E-1,1.368348E-1,6.338922E-1,2.8349736E-1,2.2134718E-1,8.2605004E-2,-5.2883154E-1,7.508087E-1,1.9435994E-1,6.1948013E-1,4.1911942E-1,1.3699934E-1,1.0631625E-1,1.9664852E-1,2.1123129E-1,7.479879E-1,3.0876207E-1,1.1175431E-1,2.3980685E-1,1.3030185E-1,2.8328763E-2,1.5993646E-1,-6.408707E-1,1.4794888E-1,9.843771E-1,3.1069902E-1,2.187354E-1,4.459049E-2,7.3377305E-1,2.025072E-1,5.2019835E-1,2.0775709E-1,1.09605506E-1,1.8440779E-1,2.891712E-1,1.00271985E-1,2.043685E-1,-1.4427984E-2,2.4063005E-1,6.271734E-2,8.891661E-1,2.2306573E-1,3.4516034E-1,1.5586123E-1,1.5649803E-1,4.47153E-3,2.744679E-1,1.5290205E-1,1.02378525E-1,3.1430098E-1,-2.6188713E-1,4.9832743E-2,2.1824645E-1,3.618926E-2,-2.1242929E-1,1.8209593E-1,-3.0425312E-2,8.158462E-2,3.5814714E-1,1.0614014E-1,1.4350393E-1,7.637262E-2,7.419285E-2,2.4715347E-2,-2.264534E-3,6.943495E-2,2.787623E-1,1.07616335E-1,7.9114124E-2,-1.3192695E-2,1.7041504E-1,7.538883E-2,7.416404E-2,5.649674E-2,5.2281614E-2,2.526491E-2,4.3424368E-2,6.485577E-2,1.5600166E-1,1.8108834E-2,2.6404742E-2,4.97046E-2,7.0796974E-2,4.938762E-2,2.730313E-2,-1.2612572E-1,8.327766E-2,2.3569034E-2,1.7622823E-3,8.4262654E-2,3.0063337E-1,1.00312166E-1,9.1867484E-2,-3.9920356E-2,1.15886465E-1,4.556035E-2,8.404739E-2,3.412347E-2,1.9856344E-1,4.347743E-2,2.1217072E-1,-4.316331E-3,9.133835E-2,4.431711E-2,3.215645E-2,8.3414346E-2,-3.6200188E-2,3.6646638E-2,4.7300834E-2,1.5088233E-1,-3.1638736E-1,-4.6132304E-2,-1.9049173E-3,4.327888E-2,5.824447E-2,2.1061699E-1,-2.0752838E-1,2.4475183E-2],"categories":[],"categories_nodes":[],"categories_segments":[],"categories_sizes":[],"default_left":[0,0,0,0,0,0,0,0,0,0,0,0,0,0,0,0,0,0,0,0,0,0,0,0,0,0,0,0,0,0,0,0,0,0,0,0,0,0,0,0,0,0,0,0,0,0,0,0,0,0,0,0,0,0,0,0,0,0,0,0,0,0,0,0,0,0,0,0,0,0,0,0,0,0,0,0,0,0,0,0,0,0,0,0,0,0,0,0,0,0,0,0,0,0,0,0,0,0,0,0,0,0,0,0,0,0,0,0,0,0,0,0,0,0,0,0,0,0,0,0,0,0,0,0,0,0,0],"id":5,"left_children":[1,3,5,7,9,11,13,15,17,19,21,23,25,27,29,31,33,35,37,39,41,43,45,47,49,51,53,55,57,59,61,63,65,67,69,71,73,75,77,79,81,83,85,87,89,91,93,95,97,99,101,103,105,107,109,111,113,115,117,119,121,123,125,-1,-1,-1,-1,-1,-1,-1,-1,-1,-1,-1,-1,-1,-1,-1,-1,-1,-1,-1,-1,-1,-1,-1,-1,-1,-1,-1,-1,-1,-1,-1,-1,-1,-1,-1,-1,-1,-1,-1,-1,-1,-1,-1,-1,-1,-1,-1,-1,-1,-1,-1,-1,-1,-1,-1,-1,-1,-1,-1,-1,-1,-1,-1,-1],"loss_changes":[3.367056E4,3.5026035E4,1.2248447E3,3.7002625E4,6.824424E2,1.4096328E3,4.056842E1,3.70809E4,1.2296152E3,8.2005615E2,3.1680664E1,1.6276377E3,7.548401E1,2.3263306E1,1.0439642E1,3.6570016E4,2.4422139E3,3.1667755E1,1.503248E3,1.064916E3,1.6850128E1,1.2682785E1,9.561829E0,3.1318542E1,1.969544E3,8.438281E1,1.0720854E1,3.4666687E1,1.1983639E1,9.145427E0,7.395378E0,3.4712812E4,2.1182083E3,2.0496553E3,7.7403625E1,2.9053528E1,1.1846962E1,1.8144658E3,1.0241791E2,4.3378223E2,1.2321472E1,1.35065E1,5.9624634E0,1.9378162E1,8.912132E0,7.0732574E0,8.938406E0,3.586212E1,1.4720814E1,1.3121465E3,1.6691937E2,9.735571E1,1.5249176E1,9.122833E0,8.736336E0,3.12641E1,1.8778313E1,8.978279E0,9.011297E0,8.503286E0,7.2332726E0,7.992176E0,1.0954989E1,0E0,0E0,0E0,0E0,0E0,0E0,0E0,0E0,0E0,0E0,0E0,0E0,0E0,0E0,0E0,0E0,0E0,0E0,0E0,0E0,0E0,0E0,0E0,0E0,0E0,0E0,0E0,0E0,0E0,0E0,0E0,0E0,0E0,0E0,0E0,0E0,0E0,0E0,0E0,0E0,0E0,0E0,0E0,0E0,0E0,0E0,0E0,0E0,0E0,0E0,0E0,0E0,0E0,0E0,0E0,0E0,0E0,0E0,0E0,0E0,0E0,0E0,0E0,0E0],"parents":[2147483647,0,0,1,1,2,2,3,3,4,4,5,5,6,6,7,7,8,8,9,9,10,10,11,11,12,12,13,13,14,14,15,15,16,16,17,17,18,18,19,19,20,20,21,21,22,22,23,23,24,24,25,25,26,26,27,27,28,28,29,29,30,30,31,31,32,32,33,33,34,34,35,35,36,36,37,37,38,38,39,39,40,40,41,41,42,42,43,43,44,44,45,45,46,46,47,47,48,48,49,49,50,50,51,51,52,52,53,53,54,54,55,55,56,56,57,57,58,58,59,59,60,60,61,61,62,62],"right_children":[2,4,6,8,10,12,14,16,18,20,22,24,26,28,30,32,34,36,38,40,42,44,46,48,50,52,54,56,58,60,62,64,66,68,70,72,74,76,78,80,82,84,86,88,90,92,94,96,98,100,102,104,106,108,110,112,114,116,118,120,122,124,126,-1,-1,-1,-1,-1,-1,-1,-1,-1,-1,-1,-1,-1,-1,-1,-1,-1,-1,-1,-1,-1,-1,-1,-1,-1,-1,-1,-1,-1,-1,-1,-1,-1,-1,-1,-1,-1,-1,-1,-1,-1,-1,-1,-1,-1,-1,-1,-1,-1,-1,-1,-1,-1,-1,-1,-1,-1,-1,-1,-1,-1,-1,-1,-1],"split_conditions":[4.1981816E0,1.0937307E0,1.0937307E0,2.036831E0,1.0456759E0,5.139577E-2,3.83865E-1,2.5199202E2,6.490755E0,3.2031913E0,5.7576016E-2,6.490755E0,5.0017114E2,1.2616043E0,2.0676408E2,5.139577E-2,5.139577E-2,4.2537606E-1,8.508971E0,5.139577E-2,4.013164E-2,1.0697227E0,9.537788E0,9.979809E0,8.508971E0,1E0,2.0869162E0,8.053523E0,3.554331E0,2.9548535E-2,1.9040115E0,8.508971E0,1.14142396E-1,2.509326E2,1.14142396E-1,9.906937E0,3.2421873E0,5.139577E-2,1.0697227E0,2.036831E0,1.5677245E-1,6.711377E0,5.695218E0,2.0312426E0,2.8344424E2,1.3533559E-2,1E0,1.1786904E0,1.1786904E0,1.0062458E1,1.0697227E0,8.464259E0,1.14142396E-1,9.641255E-2,3.1734232E-13,1E0,2.4454924E2,1.16698325E-1,3.2780035E2,4.310608E0,3.860276E-2,5.5325696E2,3.9439832E-10,-2.1242929E-1,1.8209593E-1,-3.0425312E-2,8.158462E-2,3.5814714E-1,1.0614014E-1,1.4350393E-1,7.637262E-2,7.419285E-2,2.4715347E-2,-2.264534E-3,6.943495E-2,2.787623E-1,1.07616335E-1,7.9114124E-2,-1.3192695E-2,1.7041504E-1,7.538883E-2,7.416404E-2,5.649674E-2,5.2281614E-2,2.526491E-2,4.3424368E-2,6.485577E-2,1.5600166E-1,1.8108834E-2,2.6404742E-2,4.97046E-2,7.0796974E-2,4.938762E-2,2.730313E-2,-1.2612572E-1,8.327766E-2,2.3569034E-2,1.7622823E-3,8.4262654E-2,3.0063337E-1,1.00312166E-1,9.1867484E-2,-3.9920356E-2,1.15886465E-1,4.556035E-2,8.404739E-2,3.412347E-2,1.9856344E-1,4.347743E-2,2.1217072E-1,-4.316331E-3,9.133835E-2,4.431711E-2,3.215645E-2,8.3414346E-2,-3.6200188E-2,3.6646638E-2,4.7300834E-2,1.5088233E-1,-3.1638736E-1,-4.6132304E-2,-1.9049173E-3,4.327888E-2,5.824447E-2,2.1061699E-1,-2.0752838E-1,2.4475183E-2],"split_indices":[16,11,11,12,13,17,1,15,0,14,17,0,18,13,3,17,17,1,0,17,17,13,0,2,0,10,5,2,14,13,5,0,17,3,17,2,14,17,13,12,17,0,2,14,3,1,10,13,13,2,13,0,17,14,1,10,3,5,18,16,17,18,17,0,0,0,0,0,0,0,0,0,0,0,0,0,0,0,0,0,0,0,0,0,0,0,0,0,0,0,0,0,0,0,0,0,0,0,0,0,0,0,0,0,0,0,0,0,0,0,0,0,0,0,0,0,0,0,0,0,0,0,0,0,0,0,0],"split_type":[0,0,0,0,0,0,0,0,0,0,0,0,0,0,0,0,0,0,0,0,0,0,0,0,0,0,0,0,0,0,0,0,0,0,0,0,0,0,0,0,0,0,0,0,0,0,0,0,0,0,0,0,0,0,0,0,0,0,0,0,0,0,0,0,0,0,0,0,0,0,0,0,0,0,0,0,0,0,0,0,0,0,0,0,0,0,0,0,0,0,0,0,0,0,0,0,0,0,0,0,0,0,0,0,0,0,0,0,0,0,0,0,0,0,0,0,0,0,0,0,0,0,0,0,0,0,0],"sum_hessian":[6.939766E5,6.264725E5,6.750412E4,5.4626794E5,8.020453E4,5.115745E4,1.634667E4,5.060467E5,4.0221273E4,6.283888E4,1.7365656E4,3.375402E4,1.740343E4,1.385934E4,2.4873306E3,4.8228678E5,2.3759914E4,8.67611E3,3.1545162E4,4.9849676E4,1.2989203E4,1.1500548E4,5.8651084E3,7.1755317E3,2.6578488E4,1.517088E4,2.2325493E3,1.1521661E4,2.3376785E3,1.4623351E3,1.0249955E3,4.1378572E5,6.8501055E4,1.5521396E4,8.238518E3,7.4613E3,1.2148108E3,2.4758156E4,6.7870054E3,3.372165E4,1.6128026E4,8.234441E3,4.7547617E3,3.6648798E2,1.113406E4,5.6581953E3,2.0691301E2,5.989311E3,1.1862208E3,2.0944701E4,5.633787E3,1.2252822E4,2.9180574E3,1.5751522E3,6.5739716E2,8.235045E3,3.2866162E3,2.0310126E3,3.0666583E2,1.0010796E2,1.3622272E3,6.961869E2,3.2880865E2,3.9263347E5,2.115225E4,2.2750152E4,4.5750902E4,1.1650707E4,3.870689E3,2.0644011E3,6.174117E3,6.167918E3,1.2933816E3,9.505426E2,2.6426816E2,1.627565E4,8.482506E3,5.436857E3,1.3501486E3,2.8626398E4,5.0952505E3,5.318544E3,1.0809482E4,2.3198594E3,5.9145815E3,2.1175544E3,2.6372075E3,1.8180278E2,1.8468518E2,9.379016E3,1.7550446E3,3.1483162E3,2.5098794E3,1.6487086E2,4.2042156E1,4.87644E3,1.112871E3,9.418423E2,2.4437856E2,1.7401318E4,3.5433818E3,4.567411E3,1.0663762E3,1.0102304E4,2.1505188E3,7.3708057E2,2.1809768E3,3.4005703E1,1.5411466E3,1.6226847E1,6.411703E2,6.658053E3,1.5769918E3,2.4086343E3,8.7798193E2,1.650023E2,1.8660103E3,1.685507E2,1.3811513E2,1.0963467E1,8.914449E1,8.546655E2,5.0756165E2,6.644904E2,3.1696474E1,1.8464968E1,3.1034366E2],"tree_param":{"num_deleted":"0","num_feature":"19","num_nodes":"127","size_leaf_vector":"0"}},{"base_weights":[-1.8170148E-1,3.0307776E-1,-2.5843287E-1,3.7840474E-1,1.4650029E-1,-3.3992252E-1,2.9481292E-1,4.3194783E-1,1.7272091E-1,2.3387714E-1,1.167305E-1,-4.105783E-1,4.50087E-1,3.657776E-1,1.5010464E-1,4.9427867E-1,1.9080307E-1,1.9834267E-1,-2.7524285E-2,1.4095655E-1,4.7685418E-1,1.1312394E-1,2.9780793E-1,-4.9303547E-1,3.5621366E-1,5.47875E-1,1.3697483E-1,4.2924222E-1,1.2694575E-1,2.3086323E-1,1.2251031E-1,5.233043E-1,-1.8476391E-1,2.155259E-1,-4.3784395E-2,2.3909397E-1,8.50971E-2,-8.417154E-2,1.8829995E-1,2.2851059E-1,1.1574433E-1,5.7447183E-1,1.1810647E-1,1.073256E-1,1.7722258E-1,8.916456E-3,3.6851165E-1,-5.5461216E-1,7.0901185E-1,4.3213394E-1,5.989066E-2,6.5832025E-1,2.234184E-1,1.5572123E-1,4.3304443E-2,5.109714E-1,1.6084062E-1,1.6879112E-1,-5.6095216E-2,1.1058147E-1,5.3551096E-1,1.205068E-1,3.434612E-1,1.7619096E-1,5.555936E-2,-8.8254035E-2,2.3386182E-1,7.274816E-2,2.217185E-2,-3.4333177E-2,5.0174132E-2,8.068406E-2,2.365804E-2,2.2051036E-2,1.5064734E-1,-2.7338877E-1,-2.1039095E-2,4.093444E-2,1.8186617E-1,4.654495E-2,1.0463621E-1,6.417989E-2,2.8002413E-2,2.0820314E-1,2.7984472E-2,4.3797307E-2,-1.6855493E-1,5.2364808E-2,3.0630913E-2,4.1681856E-2,9.640055E-2,-4.971219E-2,1.0947781E-1,1.3205205E-1,2.2984995E-2,-1.8664445E-1,1.8470661E-1,2.9930553E-1,3.2680202E-2,1.6074744E-1,2.0179134E-2,2.4016285E-3,4.3288942E-2,2.3501073E-1,5.3823683E-2,8.3092175E-2,-2.7183825E-3,1.3850203E-3,4.9967036E-2,-7.220061E-2,2.199732E-2,1.7484942E-1,3.9933488E-2,5.8003455E-2,2.2226794E-2,5.9756406E-2,2.156918E-3,-9.0174206E-2,-9.206258E-3,-2.4347926E-2,3.790111E-2,1.8398592E-1,7.9037406E-2,3.3848323E-2,4.877795E-2,1.7222999E-1,3.854459E-2],"categories":[],"categories_nodes":[],"categories_segments":[],"categories_sizes":[],"default_left":[0,0,0,0,0,0,0,0,0,0,0,0,0,0,0,0,0,0,0,0,0,0,0,0,0,0,0,0,0,0,0,0,0,0,0,0,0,0,0,0,0,0,0,0,0,0,0,0,0,0,0,0,0,0,0,0,0,0,0,0,0,0,0,0,0,0,0,0,0,0,0,0,0,0,0,0,0,0,0,0,0,0,0,0,0,0,0,0,0,0,0,0,0,0,0,0,0,0,0,0,0,0,0,0,0,0,0,0,0,0,0,0,0,0,0,0,0,0,0,0,0,0,0,0,0,0,0],"id":6,"left_children":[1,3,5,7,9,11,13,15,17,19,21,23,25,27,29,31,33,35,37,39,41,43,45,47,49,51,53,55,57,59,61,63,65,67,69,71,73,75,77,79,81,83,85,87,89,91,93,95,97,99,101,103,105,107,109,111,113,115,117,119,121,123,125,-1,-1,-1,-1,-1,-1,-1,-1,-1,-1,-1,-1,-1,-1,-1,-1,-1,-1,-1,-1,-1,-1,-1,-1,-1,-1,-1,-1,-1,-1,-1,-1,-1,-1,-1,-1,-1,-1,-1,-1,-1,-1,-1,-1,-1,-1,-1,-1,-1,-1,-1,-1,-1,-1,-1,-1,-1,-1,-1,-1,-1,-1,-1,-1],"loss_changes":[2.396609E4,1.0383716E3,2.5077688E4,6.5458496E2,7.436615E1,2.7062883E4,7.3329834E2,7.088418E2,6.3008972E1,1.6400162E2,1.3898743E1,2.8138328E4,1.2186182E3,7.262075E2,5.23396E1,7.387676E2,5.620224E1,5.0222137E1,1.7057161E1,1.1580322E1,7.031723E1,7.755829E0,8.493816E0,2.9742414E4,9.7207666E2,1.086709E3,1.6628906E1,8.303154E2,7.706879E1,2.1919662E2,7.7128906E0,7.776113E2,1.6240395E2,3.345883E1,1.3805986E1,3.8272522E1,1.3900787E1,1.2766804E1,6.203684E0,1.03097725E1,8.964733E0,9.079968E1,8.257126E0,6.7180023E0,9.520859E0,5.209133E0,6.9565887E0,3.021171E4,3.3918838E3,1.3013433E3,3.8599358E1,1.3549102E3,9.59202E1,1.2923233E1,1.34971695E1,7.8785645E2,2.490625E1,4.0224136E1,1.1624163E1,1.2973438E1,3.5669952E1,5.5924377E0,7.704218E0,0E0,0E0,0E0,0E0,0E0,0E0,0E0,0E0,0E0,0E0,0E0,0E0,0E0,0E0,0E0,0E0,0E0,0E0,0E0,0E0,0E0,0E0,0E0,0E0,0E0,0E0,0E0,0E0,0E0,0E0,0E0,0E0,0E0,0E0,0E0,0E0,0E0,0E0,0E0,0E0,0E0,0E0,0E0,0E0,0E0,0E0,0E0,0E0,0E0,0E0,0E0,0E0,0E0,0E0,0E0,0E0,0E0,0E0,0E0,0E0,0E0,0E0,0E0,0E0],"parents":[2147483647,0,0,1,1,2,2,3,3,4,4,5,5,6,6,7,7,8,8,9,9,10,10,11,11,12,12,13,13,14,14,15,15,16,16,17,17,18,18,19,19,20,20,21,21,22,22,23,23,24,24,25,25,26,26,27,27,28,28,29,29,30,30,31,31,32,32,33,33,34,34,35,35,36,36,37,37,38,38,39,39,40,40,41,41,42,42,43,43,44,44,45,45,46,46,47,47,48,48,49,49,50,50,51,51,52,52,53,53,54,54,55,55,56,56,57,57,58,58,59,59,60,60,61,61,62,62],"right_children":[2,4,6,8,10,12,14,16,18,20,22,24,26,28,30,32,34,36,38,40,42,44,46,48,50,52,54,56,58,60,62,64,66,68,70,72,74,76,78,80,82,84,86,88,90,92,94,96,98,100,102,104,106,108,110,112,114,116,118,120,122,124,126,-1,-1,-1,-1,-1,-1,-1,-1,-1,-1,-1,-1,-1,-1,-1,-1,-1,-1,-1,-1,-1,-1,-1,-1,-1,-1,-1,-1,-1,-1,-1,-1,-1,-1,-1,-1,-1,-1,-1,-1,-1,-1,-1,-1,-1,-1,-1,-1,-1,-1,-1,-1,-1,-1,-1,-1,-1,-1,-1,-1,-1,-1,-1,-1],"split_conditions":[6.508483E0,5.139577E-2,2.509326E2,1.0697227E0,1.14142396E-1,1.0062458E1,5.139577E-2,3.2031913E0,2.4697183E2,1.0926886E-1,6.490755E0,3.180558E0,1.0937307E0,8.508971E0,1.14142396E-1,6.490755E0,2.6480316E2,9.649085E-1,1E0,1.309676E2,1.0456759E0,2.662324E0,3.701576E-6,5.0017114E2,8.508971E0,1.14142396E-1,4.1981816E0,1.0937307E0,1E0,1.0926886E-1,3.7675352E0,4.1981816E0,1E0,1.6371268E0,1.1920482E0,4.228594E0,5.639069E2,7.872561E1,2.3550396E0,4.99987E-40,2.6659083E0,1.1920482E0,3.5686376E0,1.0695785E2,9.308004E0,1.8607575E0,1.4238929E0,2.036831E0,5.139577E-2,1.0937307E0,3.860276E-2,3.2031913E0,1E0,7.903022E-10,1.4203301E-1,3.143747E-1,1.0997119E-1,3.4380765E0,7.37828E1,2.3264074E0,3.1375628E0,8.802055E0,7.706602E0,1.7619096E-1,5.555936E-2,-8.8254035E-2,2.3386182E-1,7.274816E-2,2.217185E-2,-3.4333177E-2,5.0174132E-2,8.068406E-2,2.365804E-2,2.2051036E-2,1.5064734E-1,-2.7338877E-1,-2.1039095E-2,4.093444E-2,1.8186617E-1,4.654495E-2,1.0463621E-1,6.417989E-2,2.8002413E-2,2.0820314E-1,2.7984472E-2,4.3797307E-2,-1.6855493E-1,5.2364808E-2,3.0630913E-2,4.1681856E-2,9.640055E-2,-4.971219E-2,1.0947781E-1,1.3205205E-1,2.2984995E-2,-1.8664445E-1,1.8470661E-1,2.9930553E-1,3.2680202E-2,1.6074744E-1,2.0179134E-2,2.4016285E-3,4.3288942E-2,2.3501073E-1,5.3823683E-2,8.3092175E-2,-2.7183825E-3,1.3850203E-3,4.9967036E-2,-7.220061E-2,2.199732E-2,1.7484942E-1,3.9933488E-2,5.8003455E-2,2.2226794E-2,5.9756406E-2,2.156918E-3,-9.0174206E-2,-9.206258E-3,-2.4347926E-2,3.790111E-2,1.8398592E-1,7.9037406E-2,3.3848323E-2,4.877795E-2,1.7222999E-1,3.854459E-2],"split_indices":[0,17,3,13,17,2,17,14,15,17,0,14,11,0,17,0,15,11,10,18,13,11,1,18,0,17,16,11,10,17,13,16,10,11,11,16,18,3,11,4,16,11,12,3,2,5,11,12,17,11,17,14,10,1,5,1,1,14,15,16,14,0,0,0,0,0,0,0,0,0,0,0,0,0,0,0,0,0,0,0,0,0,0,0,0,0,0,0,0,0,0,0,0,0,0,0,0,0,0,0,0,0,0,0,0,0,0,0,0,0,0,0,0,0,0,0,0,0,0,0,0,0,0,0,0,0,0],"split_type":[0,0,0,0,0,0,0,0,0,0,0,0,0,0,0,0,0,0,0,0,0,0,0,0,0,0,0,0,0,0,0,0,0,0,0,0,0,0,0,0,0,0,0,0,0,0,0,0,0,0,0,0,0,0,0,0,0,0,0,0,0,0,0,0,0,0,0,0,0,0,0,0,0,0,0,0,0,0,0,0,0,0,0,0,0,0,0,0,0,0,0,0,0,0,0,0,0,0,0,0,0,0,0,0,0,0,0,0,0,0,0,0,0,0,0,0,0,0,0,0,0,0,0,0,0,0,0],"sum_hessian":[6.4428506E5,8.804226E4,5.562428E5,5.9443496E4,2.859876E4,4.8483066E5,7.141215E4,4.716462E4,1.2278873E4,7.265896E3,2.1332865E4,4.4502922E5,3.9801426E4,4.791378E4,2.349837E4,3.7476645E4,9.687975E3,1.0885998E4,1.3928752E3,5.257048E3,2.0088484E3,2.0917863E4,4.1500018E2,4.0181978E5,4.3209438E4,3.0328723E4,9.472702E3,3.785405E4,1.0059728E4,5.982476E3,1.7515893E4,3.5940598E4,1.5360488E3,8.76439E3,9.2358527E2,8.004482E3,2.881516E3,1.1037775E3,2.890978E2,1.173565E3,4.083483E3,1.5786783E3,4.3017014E2,1.9185062E4,1.7328008E3,8.181889E1,3.3318127E2,3.8223953E5,1.9580266E4,3.439636E4,8.813077E3,2.262584E4,7.702883E3,7.892501E3,1.5802015E3,2.9017287E4,8.836764E3,8.187943E3,1.8717847E3,4.2900366E3,1.6924395E3,1.7360023E4,1.5586931E2,3.0219691E4,5.7209053E3,1.3801436E3,1.5590524E2,7.3618047E3,1.4025848E3,6.9225555E2,2.313297E2,6.746817E3,1.2576652E3,2.8047253E3,7.6790825E1,1.7358227E1,1.0864192E3,2.583683E2,3.0729515E1,7.303751E2,4.431898E2,7.570226E2,3.3264602E3,1.2641838E3,3.1449442E2,4.1397845E2,1.6191677E1,1.3806891E3,1.7804375E4,1.3706548E3,3.6214606E2,5.5252113E1,2.6566784E1,2.6709903E2,6.608227E1,3.613851E5,2.085443E4,1.3219997E4,6.360268E3,2.6784207E4,7.6121523E3,5.4586665E3,3.354411E3,1.7940672E4,4.685168E3,6.2604863E3,1.4423967E3,5.281891E2,7.364312E3,1.5040752E2,1.429794E3,2.4380209E4,4.637078E3,6.427327E3,2.4094373E3,6.891444E3,1.296499E3,1.7518991E2,1.6965948E3,3.254342E2,3.9646023E3,1.3151932E3,3.7724612E2,1.4684394E4,2.6756306E3,7.4390045E1,8.1479256E1],"tree_param":{"num_deleted":"0","num_feature":"19","num_nodes":"127","size_leaf_vector":"0"}},{"base_weights":[-1.403104E-1,-2.0993398E-1,2.4887101E-1,-2.9648843E-1,2.6847664E-1,2.3089914E-1,5.840126E-1,-4.0313187E-1,1.3622311E-1,3.138959E-1,4.607721E-3,2.066736E-1,4.6034274E-1,7.629876E-1,2.6599336E-1,-4.8462853E-1,2.749731E-1,-9.575531E-3,2.0482121E-1,3.7148792E-1,1.2856704E-1,3.4480017E-2,-1.05144605E-1,1.8348E-1,3.6129636E-1,5.6141454E-1,9.0940766E-2,9.134298E-1,2.2355644E-1,3.3548E-1,5.4034166E-2,-5.633557E-1,3.2516342E-1,3.3289945E-1,5.410562E-2,1.9095269E-1,-2.9864264E-1,2.3172703E-1,2.6321119E-2,4.320775E-1,1.6181597E-1,1.4780867E-1,6.373456E-2,5.8335043E-2,-7.161818E-2,-1.8523273E-1,-1.721418E-2,1.5144457E-1,3.9412734E-1,4.266365E-1,1.201011E-3,1.1438796E-1,6.880072E-1,1.0909842E-1,-4.3194407E-1,1.1028068E0,3.8057193E-1,2.510109E-1,-3.2734084E-1,8.786005E-2,4.0442583E-1,1.6914414E-1,-1.7310831E-1,-1.8775462E-1,1.9213276E-1,1.11895174E-1,2.4110872E-2,1.169479E-1,9.534916E-3,9.191634E-3,4.1742772E-2,-2.3447452E-2,6.7591816E-2,-1.18828356E-1,1.6177918E-1,2.3614543E-2,8.170786E-2,-2.2336997E-3,2.8174942E-2,1.4666556E-1,5.7782028E-2,6.271879E-2,-2.233857E-4,4.9875434E-2,1.1072932E-2,1.4829132E-2,8.878745E-2,2.7587252E-2,-1.3422142E-2,-5.621569E-2,1.3282639E-4,-7.701014E-2,-1.911566E-2,3.7701644E-2,-3.2144748E-2,3.6282584E-2,1.2843178E-1,1.4267217E-1,3.737664E-2,1.5683223E-1,4.0246256E-2,-2.1221023E-2,4.2258438E-2,5.1514156E-2,-2.6196586E-2,2.6423264E-1,9.755801E-2,4.374745E-2,-3.6859114E-2,-2.2015725E-1,8.923114E-2,4.0358153E-1,1.1612966E-1,1.3714111E-1,-1.7747205E-2,8.890422E-2,-1.3195824E-2,3.0003209E-2,-2.6458728E-1,-3.229626E-1,4.5599185E-2,1.394434E-1,4.2782146E-2,7.007651E-2,-1.11331135E-1,4.868293E-2,-9.822592E-2],"categories":[],"categories_nodes":[],"categories_segments":[],"categories_sizes":[],"default_left":[0,0,0,0,0,0,0,0,0,0,0,0,0,0,0,0,0,0,0,0,0,0,0,0,0,0,0,0,0,0,0,0,0,0,0,0,0,0,0,0,0,0,0,0,0,0,0,0,0,0,0,0,0,0,0,0,0,0,0,0,0,0,0,0,0,0,0,0,0,0,0,0,0,0,0,0,0,0,0,0,0,0,0,0,0,0,0,0,0,0,0,0,0,0,0,0,0,0,0,0,0,0,0,0,0,0,0,0,0,0,0,0,0,0,0,0,0,0,0,0,0,0,0,0,0,0,0],"id":7,"left_children":[1,3,5,7,9,11,13,15,17,19,21,23,25,27,29,31,33,35,37,39,41,43,45,47,49,51,53,55,57,59,61,63,65,67,69,71,73,75,77,79,81,83,85,87,89,91,93,95,97,99,101,103,105,107,109,111,113,115,117,119,121,123,125,-1,-1,-1,-1,-1,-1,-1,-1,-1,-1,-1,-1,-1,-1,-1,-1,-1,-1,-1,-1,-1,-1,-1,-1,-1,-1,-1,-1,-1,-1,-1,-1,-1,-1,-1,-1,-1,-1,-1,-1,-1,-1,-1,-1,-1,-1,-1,-1,-1,-1,-1,-1,-1,-1,-1,-1,-1,-1,-1,-1,-1,-1,-1,-1],"loss_changes":[1.6355156E4,2.120124E4,5.515576E2,2.000704E4,9.4008594E2,4.8312744E2,2.6509827E2,1.9222625E4,8.57391E2,7.142344E2,3.7772797E1,2.819397E2,3.0989795E2,2.4179993E2,2.4726723E1,1.9796422E4,4.77448E2,1.5900509E3,2.799773E2,6.485303E2,1.978482E1,2.2925034E1,1.7355326E1,4.6138208E2,2.4130469E2,3.6877417E2,1.6990955E1,2.3484814E2,9.937801E0,2.1562622E1,1.0905931E1,2.1290492E4,3.2205225E2,5.0678198E2,1.54716625E1,1.4974432E2,9.176174E2,3.1494946E2,1.7432873E1,5.3873145E2,8.792255E1,2.5018097E1,1.2054109E1,2.5630135E1,1.387209E1,1.1185463E1,1.5126185E1,5.008413E2,1.9808704E2,2.4401746E2,1.584511E1,1.6662E1,3.5495508E2,1.4717911E1,1.3451659E1,2.9788574E2,2.0660507E1,8.321884E0,7.522697E0,2.0835947E1,1.5574402E1,9.716274E0,7.319595E0,0E0,0E0,0E0,0E0,0E0,0E0,0E0,0E0,0E0,0E0,0E0,0E0,0E0,0E0,0E0,0E0,0E0,0E0,0E0,0E0,0E0,0E0,0E0,0E0,0E0,0E0,0E0,0E0,0E0,0E0,0E0,0E0,0E0,0E0,0E0,0E0,0E0,0E0,0E0,0E0,0E0,0E0,0E0,0E0,0E0,0E0,0E0,0E0,0E0,0E0,0E0,0E0,0E0,0E0,0E0,0E0,0E0,0E0,0E0,0E0,0E0,0E0,0E0,0E0],"parents":[2147483647,0,0,1,1,2,2,3,3,4,4,5,5,6,6,7,7,8,8,9,9,10,10,11,11,12,12,13,13,14,14,15,15,16,16,17,17,18,18,19,19,20,20,21,21,22,22,23,23,24,24,25,25,26,26,27,27,28,28,29,29,30,30,31,31,32,32,33,33,34,34,35,35,36,36,37,37,38,38,39,39,40,40,41,41,42,42,43,43,44,44,45,45,46,46,47,47,48,48,49,49,50,50,51,51,52,52,53,53,54,54,55,55,56,56,57,57,58,58,59,59,60,60,61,61,62,62],"right_children":[2,4,6,8,10,12,14,16,18,20,22,24,26,28,30,32,34,36,38,40,42,44,46,48,50,52,54,56,58,60,62,64,66,68,70,72,74,76,78,80,82,84,86,88,90,92,94,96,98,100,102,104,106,108,110,112,114,116,118,120,122,124,126,-1,-1,-1,-1,-1,-1,-1,-1,-1,-1,-1,-1,-1,-1,-1,-1,-1,-1,-1,-1,-1,-1,-1,-1,-1,-1,-1,-1,-1,-1,-1,-1,-1,-1,-1,-1,-1,-1,-1,-1,-1,-1,-1,-1,-1,-1,-1,-1,-1,-1,-1,-1,-1,-1,-1,-1,-1,-1,-1,-1,-1,-1,-1,-1],"split_conditions":[1E0,1E0,5.0346146E0,4.8633236E-2,2.036831E0,2.5199202E2,4.333072E-2,1.0937307E0,1.14142396E-1,1.14142396E-1,9.186588E0,3.4725654E-1,3.2031913E0,3.2031913E0,4.3164478E2,2.509326E2,3.2031913E0,1.0926886E-1,4.9808655E2,1.0937307E0,3.1375628E0,2.5985613E-1,4.0321413E-1,4.1981816E0,2.036831E0,6.490755E0,1.6149357E1,1.0937307E0,4.9428964E0,6.490755E0,2.797197E0,4.228594E0,8.508971E0,1.0062458E1,8.342012E0,5.139577E-2,3.2031913E0,6.490755E0,7.564303E-1,3.2031913E0,2.509326E2,1.0714557E1,3.3032227E0,1.0416366E0,9.5861004E-4,4.6792686E-2,8.341399E-4,5.0017114E2,2.509326E2,1.0742308E0,7.191008E-2,1.5179686E-1,5.139577E-2,4.9390982E2,1.0416366E0,2.509326E2,1.3066722E0,1.802587E0,1E-45,1.0947045E-3,2.6391333E2,1.2143025E1,1.02462165E-1,-1.8775462E-1,1.9213276E-1,1.11895174E-1,2.4110872E-2,1.169479E-1,9.534916E-3,9.191634E-3,4.1742772E-2,-2.3447452E-2,6.7591816E-2,-1.18828356E-1,1.6177918E-1,2.3614543E-2,8.170786E-2,-2.2336997E-3,2.8174942E-2,1.4666556E-1,5.7782028E-2,6.271879E-2,-2.233857E-4,4.9875434E-2,1.1072932E-2,1.4829132E-2,8.878745E-2,2.7587252E-2,-1.3422142E-2,-5.621569E-2,1.3282639E-4,-7.701014E-2,-1.911566E-2,3.7701644E-2,-3.2144748E-2,3.6282584E-2,1.2843178E-1,1.4267217E-1,3.737664E-2,1.5683223E-1,4.0246256E-2,-2.1221023E-2,4.2258438E-2,5.1514156E-2,-2.6196586E-2,2.6423264E-1,9.755801E-2,4.374745E-2,-3.6859114E-2,-2.2015725E-1,8.923114E-2,4.0358153E-1,1.1612966E-1,1.3714111E-1,-1.7747205E-2,8.890422E-2,-1.3195824E-2,3.0003209E-2,-2.6458728E-1,-3.229626E-1,4.5599185E-2,1.394434E-1,4.2782146E-2,7.007651E-2,-1.11331135E-1,4.868293E-2,-9.822592E-2],"split_indices":[7,10,5,17,12,15,17,11,17,17,2,1,14,14,18,3,14,17,18,11,14,1,11,16,12,0,2,11,16,0,14,16,0,2,0,17,14,0,11,14,3,2,11,11,17,17,1,18,3,11,17,1,17,18,11,3,13,11,4,11,3,2,11,0,0,0,0,0,0,0,0,0,0,0,0,0,0,0,0,0,0,0,0,0,0,0,0,0,0,0,0,0,0,0,0,0,0,0,0,0,0,0,0,0,0,0,0,0,0,0,0,0,0,0,0,0,0,0,0,0,0,0,0,0,0,0,0],"split_type":[0,0,0,0,0,0,0,0,0,0,0,0,0,0,0,0,0,0,0,0,0,0,0,0,0,0,0,0,0,0,0,0,0,0,0,0,0,0,0,0,0,0,0,0,0,0,0,0,0,0,0,0,0,0,0,0,0,0,0,0,0,0,0,0,0,0,0,0,0,0,0,0,0,0,0,0,0,0,0,0,0,0,0,0,0,0,0,0,0,0,0,0,0,0,0,0,0,0,0,0,0,0,0,0,0,0,0,0,0,0,0,0,0,0,0,0,0,0,0,0,0,0,0,0,0,0,0],"sum_hessian":[6.03593E5,5.1199825E5,9.159474E4,4.335588E5,7.843945E4,8.6934586E4,4.6601523E3,3.4783388E5,8.572493E4,6.692038E4,1.1519069E4,7.863401E4,8.30058E3,2.9810671E3,1.6790851E3,3.105155E5,3.7318383E4,2.7428717E4,5.8296215E4,5.105404E4,1.5866342E4,9.055136E3,2.4639333E3,6.837922E4,1.0254788E4,6.5169595E3,1.7836204E3,2.3304375E3,6.506299E2,1.2640941E3,4.14991E2,2.8300256E5,2.7512916E4,2.956416E4,7.7542246E3,1.6194676E4,1.1234041E4,5.065982E4,7.6363916E3,3.9607477E4,1.144656E4,1.2234102E4,3.6322405E3,7.393286E3,1.66185E3,1.2888899E3,1.1750433E3,5.935429E4,9.024933E3,8.679659E3,1.5751292E3,1.4386544E3,5.078305E3,1.724526E3,5.9094387E1,1.7185847E3,6.118526E2,6.202629E2,3.0367006E1,2.7580624E2,9.8828784E2,2.755863E2,1.3940471E2,2.690365E5,1.3966075E4,2.3016182E4,4.4967344E3,2.4863377E4,4.7007827E3,6.078233E3,1.6759917E3,1.8331567E3,1.436152E4,1.0064075E4,1.1699651E3,1.0630588E4,4.0029234E4,5.0930728E3,2.5433188E3,3.2012398E4,7.595079E3,8.868678E3,2.5778813E3,1.0489219E4,1.7448829E3,3.4226316E3,2.0960881E2,5.574903E3,1.8183837E3,6.3695984E2,1.0248901E3,8.10869E2,4.780209E2,4.537461E2,7.212973E2,5.346146E4,5.8928257E3,6.9300986E3,2.0948345E3,6.531874E3,2.1477847E3,1.0399529E3,5.351763E2,1.1203889E3,3.182654E2,3.315372E3,1.7629327E3,1.4891251E3,2.3540091E2,4.179006E1,1.730433E1,1.2830413E3,4.3554352E2,5.210828E2,9.076979E1,5.3763245E2,8.263038E1,1.7614271E1,1.2752736E1,1.3574697E1,2.6223154E2,8.024391E2,1.8584879E2,2.467232E2,2.8863087E1,4.3912483E1,9.549223E1],"tree_param":{"num_deleted":"0","num_feature":"19","num_nodes":"127","size_leaf_vector":"0"}},{"base_weights":[-1.08448535E-1,-1.5976888E-1,2.9648465E-1,-2.2714134E-1,2.6055202E-1,3.808607E-1,1.4017279E-2,-2.8979588E-1,3.5616702E-1,3.270457E-1,4.800923E-2,4.7593072E-1,8.153185E-2,3.4575954E-2,-9.04685E-2,2.5748855E-1,-3.7895596E-1,4.7899303E-1,1.02438435E-1,3.9433733E-1,-3.8626906E-2,1.6752517E-2,1.01232044E-1,5.7834935E-1,9.386718E-2,1.1148109E-1,-6.50119E-2,7.071633E-2,-3.209076E-2,-1.3825418E-1,2.548797E-2,3.433896E-1,7.619267E-2,-4.3556908E-1,7.069036E-1,5.978122E-1,-5.897729E-3,1.3460827E-1,-9.664968E-2,1.1780372E-1,4.8900408E-1,-1.1888411E-1,9.946252E-2,3.6335796E-2,-1.19038746E-1,1.0650323E-1,-2.146525E-1,7.506301E-1,2.505594E-1,1.5243074E-1,-2.3569685E-1,-3.194299E-2,1.471802E-1,-1.5189311E-1,1.8661807E-1,9.065167E-2,-3.8792778E-2,3.3444744E-2,-7.214574E-2,-2.1747394E-1,-2.8729955E-2,-1.7548682E-3,3.9498556E-1,1.1992575E-1,1.0910427E-2,4.7171332E-2,1.4670279E-2,-1.4981572E-1,1.4228739E-1,2.8831124E-1,6.9821835E-2,2.1977775E-1,3.5140898E-2,9.680657E-3,-5.417706E-2,8.24325E-2,2.588588E-2,-3.3244377E-1,-2.628588E-2,4.3973714E-2,-1.2063979E-2,1.7720768E-1,4.0587895E-2,1.6152364E-1,-4.3174706E-2,3.5650995E-2,-4.0215805E-2,1.5835576E-2,-2.2457592E-2,3.697166E-2,-5.987184E-2,2.4726328E-2,4.912465E-2,3.1231456E-2,-1.1540543E-1,2.7529517E-1,3.0987915E-2,3.218406E-3,9.399004E-2,5.6914333E-2,-4.6103373E-2,-1.2610158E-1,1.0865893E-2,-1.1089788E-3,-4.2251762E-2,5.4813214E-2,-2.8516842E-2,-7.718664E-2,1.677173E-2,-2.4825251E-1,5.967362E-2,3.477984E-2,-1.3551396E-2,2.421602E-2,-3.4738228E-2,1.8979952E-2,-4.839399E-2,-3.005027E-1,-2.0220479E-2,-9.197728E-3,-8.177943E-2,5.0627872E-2,-2.0645529E-2,2.3315565E-3,-3.2034743E-1,1.8559499E-1,-1.14313744E-1],"categories":[],"categories_nodes":[],"categories_segments":[],"categories_sizes":[],"default_left":[0,0,0,0,0,0,0,0,0,0,0,0,0,0,0,0,0,0,0,0,0,0,0,0,0,0,0,0,0,0,0,0,0,0,0,0,0,0,0,0,0,0,0,0,0,0,0,0,0,0,0,0,0,0,0,0,0,0,0,0,0,0,0,0,0,0,0,0,0,0,0,0,0,0,0,0,0,0,0,0,0,0,0,0,0,0,0,0,0,0,0,0,0,0,0,0,0,0,0,0,0,0,0,0,0,0,0,0,0,0,0,0,0,0,0,0,0,0,0,0,0,0,0,0,0,0,0],"id":8,"left_children":[1,3,5,7,9,11,13,15,17,19,21,23,25,27,29,31,33,35,37,39,41,43,45,47,49,51,53,55,57,59,61,63,65,67,69,71,73,75,77,79,81,83,85,87,89,91,93,95,97,99,101,103,105,107,109,111,113,115,117,119,121,123,125,-1,-1,-1,-1,-1,-1,-1,-1,-1,-1,-1,-1,-1,-1,-1,-1,-1,-1,-1,-1,-1,-1,-1,-1,-1,-1,-1,-1,-1,-1,-1,-1,-1,-1,-1,-1,-1,-1,-1,-1,-1,-1,-1,-1,-1,-1,-1,-1,-1,-1,-1,-1,-1,-1,-1,-1,-1,-1,-1,-1,-1,-1,-1,-1],"loss_changes":[1.1823957E4,1.4299837E4,1.5253159E3,1.5905754E4,9.858804E2,1.4023008E3,3.1625557E1,1.9176863E4,1.3155093E3,1.3075161E3,2.7654709E1,1.4634238E3,5.214669E1,2.9641224E1,1.3416212E1,8.573921E2,2.0775055E4,1.638772E3,8.820862E1,1.174772E3,9.154736E1,2.7859615E1,1.02645035E1,1.6653662E3,1.526539E2,5.0511368E1,4.4113853E1,1.7419102E1,1.1355997E1,1.4868206E1,7.1200895E0,6.464155E2,3.914511E1,1.8650387E4,2.0177588E3,1.4799834E3,3.7337708E1,8.027466E1,1.7405107E1,5.205252E1,1.2024165E3,8.602758E1,1.3753122E1,1.6750034E1,2.578934E1,8.327736E0,5.5296545E0,2.0900654E3,1.5291217E2,7.666597E1,5.993908E1,6.0491533E0,6.799875E1,3.2855854E1,6.6229515E0,2.318024E1,1.1322006E1,9.543459E0,1.1771726E1,1.0234501E1,5.7174067E0,6.708217E0,8.665991E0,0E0,0E0,0E0,0E0,0E0,0E0,0E0,0E0,0E0,0E0,0E0,0E0,0E0,0E0,0E0,0E0,0E0,0E0,0E0,0E0,0E0,0E0,0E0,0E0,0E0,0E0,0E0,0E0,0E0,0E0,0E0,0E0,0E0,0E0,0E0,0E0,0E0,0E0,0E0,0E0,0E0,0E0,0E0,0E0,0E0,0E0,0E0,0E0,0E0,0E0,0E0,0E0,0E0,0E0,0E0,0E0,0E0,0E0,0E0,0E0,0E0,0E0,0E0,0E0],"parents":[2147483647,0,0,1,1,2,2,3,3,4,4,5,5,6,6,7,7,8,8,9,9,10,10,11,11,12,12,13,13,14,14,15,15,16,16,17,17,18,18,19,19,20,20,21,21,22,22,23,23,24,24,25,25,26,26,27,27,28,28,29,29,30,30,31,31,32,32,33,33,34,34,35,35,36,36,37,37,38,38,39,39,40,40,41,41,42,42,43,43,44,44,45,45,46,46,47,47,48,48,49,49,50,50,51,51,52,52,53,53,54,54,55,55,56,56,57,57,58,58,59,59,60,60,61,61,62,62],"right_children":[2,4,6,8,10,12,14,16,18,20,22,24,26,28,30,32,34,36,38,40,42,44,46,48,50,52,54,56,58,60,62,64,66,68,70,72,74,76,78,80,82,84,86,88,90,92,94,96,98,100,102,104,106,108,110,112,114,116,118,120,122,124,126,-1,-1,-1,-1,-1,-1,-1,-1,-1,-1,-1,-1,-1,-1,-1,-1,-1,-1,-1,-1,-1,-1,-1,-1,-1,-1,-1,-1,-1,-1,-1,-1,-1,-1,-1,-1,-1,-1,-1,-1,-1,-1,-1,-1,-1,-1,-1,-1,-1,-1,-1,-1,-1,-1,-1,-1,-1,-1,-1,-1,-1,-1,-1,-1],"split_conditions":[3.143747E-1,1.0456759E0,2.509326E2,8.508971E0,1.0937307E0,1.0937307E0,4.1981816E0,6.508483E0,5.139577E-2,8.508971E0,3.860276E-2,3.2031913E0,1.9250376E0,1.6733356E2,9.504524E-1,5.139577E-2,2.5199202E2,3.2031913E0,2.157373E0,6.490755E0,4.8633236E-2,5.0017114E2,2.701219E-1,5.139577E-2,4.1981816E0,6.4532495E0,3.151643E0,2.036831E0,7.062396E0,2.488218E-2,9.8639965E-1,4.1981816E0,1.14142396E-1,4.228594E0,5.139577E-2,2.509326E2,1E0,1.14142396E-1,2.931876E-5,4.228594E0,2.509326E2,1.0697227E0,1.2918579E1,2.2239745E0,6.542186E0,2.84659E0,1.5964703E2,1.0697227E0,6.490755E0,2.5199202E2,4.8633236E-2,1.8022212E0,5.0017114E2,8.032852E-2,3.892246E-3,8.5530205E0,2.878927E2,3.616058E0,7.0711503E0,6.4532495E0,8.796556E1,8.7102205E-1,9.127931E0,1.1992575E-1,1.0910427E-2,4.7171332E-2,1.4670279E-2,-1.4981572E-1,1.4228739E-1,2.8831124E-1,6.9821835E-2,2.1977775E-1,3.5140898E-2,9.680657E-3,-5.417706E-2,8.24325E-2,2.588588E-2,-3.3244377E-1,-2.628588E-2,4.3973714E-2,-1.2063979E-2,1.7720768E-1,4.0587895E-2,1.6152364E-1,-4.3174706E-2,3.5650995E-2,-4.0215805E-2,1.5835576E-2,-2.2457592E-2,3.697166E-2,-5.987184E-2,2.4726328E-2,4.912465E-2,3.1231456E-2,-1.1540543E-1,2.7529517E-1,3.0987915E-2,3.218406E-3,9.399004E-2,5.6914333E-2,-4.6103373E-2,-1.2610158E-1,1.0865893E-2,-1.1089788E-3,-4.2251762E-2,5.4813214E-2,-2.8516842E-2,-7.718664E-2,1.677173E-2,-2.4825251E-1,5.967362E-2,3.477984E-2,-1.3551396E-2,2.421602E-2,-3.4738228E-2,1.8979952E-2,-4.839399E-2,-3.005027E-1,-2.0220479E-2,-9.197728E-3,-8.177943E-2,5.0627872E-2,-2.0645529E-2,2.3315565E-3,-3.2034743E-1,1.8559499E-1,-1.14313744E-1],"split_indices":[1,13,3,0,11,11,16,0,17,0,17,14,12,15,11,17,15,14,12,0,17,18,1,17,16,0,14,12,0,17,17,16,17,16,17,3,10,17,11,16,3,13,2,12,0,11,3,13,0,15,17,1,18,17,13,0,3,5,0,0,15,17,2,0,0,0,0,0,0,0,0,0,0,0,0,0,0,0,0,0,0,0,0,0,0,0,0,0,0,0,0,0,0,0,0,0,0,0,0,0,0,0,0,0,0,0,0,0,0,0,0,0,0,0,0,0,0,0,0,0,0,0,0,0,0,0,0],"split_type":[0,0,0,0,0,0,0,0,0,0,0,0,0,0,0,0,0,0,0,0,0,0,0,0,0,0,0,0,0,0,0,0,0,0,0,0,0,0,0,0,0,0,0,0,0,0,0,0,0,0,0,0,0,0,0,0,0,0,0,0,0,0,0,0,0,0,0,0,0,0,0,0,0,0,0,0,0,0,0,0,0,0,0,0,0,0,0,0,0,0,0,0,0,0,0,0,0,0,0,0,0,0,0,0,0,0,0,0,0,0,0,0,0,0,0,0,0,0,0,0,0,0,0,0,0,0,0],"sum_hessian":[5.689675E5,5.049694E5,6.39981E4,4.3521075E5,6.9758664E4,4.9277914E4,1.472019E4,3.9299834E5,4.2212395E4,5.313494E4,1.6623725E4,3.7399004E4,1.1878911E4,1.2300589E4,2.419601E3,5.505522E4,3.3794312E5,2.8442793E4,1.3769599E4,4.48766E4,8.258338E3,1.0473914E4,6.14981E3,2.9492516E4,7.906487E3,9.863367E3,2.0155436E3,7.976452E3,4.324137E3,1.7133408E3,7.062602E2,3.7354934E4,1.7700285E4,3.2119756E5,1.6745582E4,2.284464E4,5.5981533E3,1.1854417E4,1.9151826E3,1.1445394E4,3.3431207E4,5.2229263E3,3.0354119E3,9.154431E3,1.3194833E3,6.049524E3,1.0028606E2,1.9331123E4,1.0161393E4,6.713954E3,1.1925327E3,1.965782E3,7.8975854E3,1.4985352E3,5.1700836E2,6.748169E3,1.2282833E3,1.6403925E3,2.6837449E3,9.9364417E2,7.1969666E2,6.5869055E2,4.7569614E1,3.1560725E4,5.7942085E3,4.4577793E3,1.3242507E4,3.0014606E5,2.1051475E4,1.0901673E4,5.843908E3,1.7841426E4,5.0032144E3,4.5950483E3,1.003105E3,3.0378618E3,8.816555E3,1.5869396E1,1.8993132E3,9.682294E3,1.7630994E3,2.5965682E4,7.465527E3,1.9085359E2,5.0320728E3,2.803319E3,2.3209273E2,7.9751577E3,1.1792728E3,3.290483E2,9.9043494E2,4.259903E3,1.7896213E3,3.5020782E1,6.5265274E1,1.536608E4,3.9650435E3,2.1072883E3,8.054104E3,5.985328E3,7.2862604E2,7.0992236E2,4.8261035E2,1.5617234E3,4.040587E2,6.887581E3,1.010004E3,9.9409283E2,5.0444238E2,5.398255E0,5.1161014E2,5.689342E3,1.058827E3,4.8126666E2,7.4701666E2,1.4231516E3,2.1724081E2,1.2560693E1,2.671184E3,2.2674954E2,7.668946E2,1.2089868E2,5.98798E2,6.538404E2,4.850206E0,3.7084175E1,1.0485439E1],"tree_param":{"num_deleted":"0","num_feature":"19","num_nodes":"127","size_leaf_vector":"0"}},{"base_weights":[-8.195439E-2,-1.1198958E-2,-2.8832752E-1,1.3263014E-1,-2.8874004E-1,-3.8405877E-1,8.702151E-2,1.8251324E-1,5.234692E-2,-3.6117476E-1,2.4934617E-1,-4.5831105E-1,2.91856E-1,-4.460589E-2,1.4989258E-1,5.9730005E-2,2.1154046E-1,2.9704006E-2,5.3632003E-1,-4.6120343E-1,7.9742305E-2,3.06393E-1,-7.227549E-2,-5.155392E-1,5.751115E-1,3.6439297E-1,-1.3698383E-1,1.0650085E-1,-2.5783023E-1,1.8295898E-1,3.306383E-2,1.8100584E-3,1.1518561E-1,2.3878387E-1,9.287649E-2,-3.804141E-3,3.474063E-1,7.2428244E-1,1.7979601E-1,-5.165654E-1,5.4376304E-1,-8.601839E-2,1.6389947E-1,3.7479803E-1,8.312231E-2,-1.220828E-1,3.2299932E-2,-5.880558E-1,3.0464172E-1,7.206446E-1,-1.0752102E-2,4.6322292E-1,4.039175E-2,-2.5111687E-1,-4.534855E-2,-1.4416952E-1,1.3876575E-1,-3.240981E-1,8.5479116E-1,2.1012998E-1,-3.8937307E-3,6.0299903E-2,-1.1249532E-1,7.65211E-3,-5.669574E-2,4.995476E-2,4.3230234E-3,6.718036E-2,1.5338743E-1,3.9578065E-2,-3.187351E-2,-1.1063622E-2,1.1330445E-1,1.462971E-1,2.1500861E-2,2.739726E-1,4.9627967E-2,6.938403E-2,-7.870282E-3,-1.7713995E-1,9.798809E-2,2.123333E-1,-2.4571948E-2,4.315175E-2,-1.1205537E-1,5.8151013E-3,6.0866863E-2,1.4445303E-1,4.481856E-2,3.642229E-2,-2.0320351E-4,-5.2447695E-2,1.7706597E-2,5.7140436E-2,-1.0098852E-2,-1.9556963E-1,1.5738767E-1,1.20550394E-1,-6.5187705E-3,2.702138E-1,4.5054886E-2,1.697157E-2,-1.10150844E-1,1.6940345E-1,3.784326E-2,1.9188404E-2,-5.826707E-2,6.72348E-2,-8.7789014E-2,-4.899119E-2,1.8466935E-2,-7.214201E-2,2.5575542E-1,5.1136144E-2,-3.018036E-2,-1.2211748E-1,2.1021144E-1,3.1122777E-1,9.037756E-2,1.3233417E-2,7.655314E-2,1.3379234E-2,-4.3769263E-2,4.720285E-2,5.8861626E-3,-5.7419386E-2,2.956135E-2],"categories":[],"categories_nodes":[],"categories_segments":[],"categories_sizes":[],"default_left":[0,0,0,0,0,0,0,0,0,0,0,0,0,0,0,0,0,0,0,0,0,0,0,0,0,0,0,0,0,0,0,0,0,0,0,0,0,0,0,0,0,0,0,0,0,0,0,0,0,0,0,0,0,0,0,0,0,0,0,0,0,0,0,0,0,0,0,0,0,0,0,0,0,0,0,0,0,0,0,0,0,0,0,0,0,0,0,0,0,0,0,0,0,0,0,0,0,0,0,0,0,0,0,0,0,0,0,0,0,0,0,0,0,0,0,0,0,0,0,0,0,0,0,0,0,0,0],"id":9,"left_children":[1,3,5,7,9,11,13,15,17,19,21,23,25,27,29,31,33,35,37,39,41,43,45,47,49,51,53,55,57,59,61,63,65,67,69,71,73,75,77,79,81,83,85,87,89,91,93,95,97,99,101,103,105,107,109,111,113,115,117,119,121,123,125,-1,-1,-1,-1,-1,-1,-1,-1,-1,-1,-1,-1,-1,-1,-1,-1,-1,-1,-1,-1,-1,-1,-1,-1,-1,-1,-1,-1,-1,-1,-1,-1,-1,-1,-1,-1,-1,-1,-1,-1,-1,-1,-1,-1,-1,-1,-1,-1,-1,-1,-1,-1,-1,-1,-1,-1,-1,-1,-1,-1,-1,-1,-1,-1],"loss_changes":[7.917091E3,1.6117619E4,4.9742E3,1.0650371E3,5.371749E3,5.5358525E3,2.3281578E2,5.8458936E2,1.1168596E3,5.3573135E3,3.0004095E2,5.877842E3,3.3967755E2,2.9304584E2,7.354257E1,1.007422E2,4.28854E2,1.0365007E3,3.0512195E2,5.5087305E3,3.1335886E2,2.1208984E2,1.2839341E1,5.6009707E3,4.4466968E2,2.9901978E2,1.6516506E1,4.307327E1,2.7840585E2,7.533612E1,1.6661888E1,6.937221E1,8.288251E1,4.3647803E2,1.9263692E2,1.1113076E3,3.5920227E2,3.1478418E2,1.669984E1,5.8475195E3,5.305829E2,4.9994687E2,8.394464E1,2.5564343E2,1.0454437E1,1.595682E1,8.309332E0,6.1463535E3,2.4268036E2,4.2898584E2,2.4944973E1,2.4465002E2,1.208889E1,1.39454E1,1.1078746E1,5.851853E1,3.579342E1,3.030241E2,2.1151688E1,9.687372E1,1.2985063E1,1.3969893E1,1.1050678E1,0E0,0E0,0E0,0E0,0E0,0E0,0E0,0E0,0E0,0E0,0E0,0E0,0E0,0E0,0E0,0E0,0E0,0E0,0E0,0E0,0E0,0E0,0E0,0E0,0E0,0E0,0E0,0E0,0E0,0E0,0E0,0E0,0E0,0E0,0E0,0E0,0E0,0E0,0E0,0E0,0E0,0E0,0E0,0E0,0E0,0E0,0E0,0E0,0E0,0E0,0E0,0E0,0E0,0E0,0E0,0E0,0E0,0E0,0E0,0E0,0E0,0E0,0E0,0E0],"parents":[2147483647,0,0,1,1,2,2,3,3,4,4,5,5,6,6,7,7,8,8,9,9,10,10,11,11,12,12,13,13,14,14,15,15,16,16,17,17,18,18,19,19,20,20,21,21,22,22,23,23,24,24,25,25,26,26,27,27,28,28,29,29,30,30,31,31,32,32,33,33,34,34,35,35,36,36,37,37,38,38,39,39,40,40,41,41,42,42,43,43,44,44,45,45,46,46,47,47,48,48,49,49,50,50,51,51,52,52,53,53,54,54,55,55,56,56,57,57,58,58,59,59,60,60,61,61,62,62],"right_children":[2,4,6,8,10,12,14,16,18,20,22,24,26,28,30,32,34,36,38,40,42,44,46,48,50,52,54,56,58,60,62,64,66,68,70,72,74,76,78,80,82,84,86,88,90,92,94,96,98,100,102,104,106,108,110,112,114,116,118,120,122,124,126,-1,-1,-1,-1,-1,-1,-1,-1,-1,-1,-1,-1,-1,-1,-1,-1,-1,-1,-1,-1,-1,-1,-1,-1,-1,-1,-1,-1,-1,-1,-1,-1,-1,-1,-1,-1,-1,-1,-1,-1,-1,-1,-1,-1,-1,-1,-1,-1,-1,-1,-1,-1,-1,-1,-1,-1,-1,-1,-1,-1,-1,-1,-1,-1],"split_conditions":[1E0,1E0,4.8633236E-2,1E0,3.2031913E0,3.2031913E0,1.14142396E-1,6.490755E0,5.0346146E0,4.8633236E-2,4.228594E0,5.0017114E2,4.228594E0,1.0926886E-1,2.5401845E2,1E0,8.508971E0,5.0017114E2,5.139577E-2,5.0017114E2,1.14142396E-1,1.0937307E0,7.191008E-2,1.0456759E0,1.0697227E0,1.0937307E0,3.9461702E-1,5.139577E-2,2.5199202E2,5.0017114E2,4.228594E0,2.5199202E2,4.8633236E-2,5.0346146E0,1.0062458E1,2.5199202E2,5.139577E-2,1.0937307E0,8.330349E0,1.0456759E0,1.0456759E0,1.0926886E-1,6.490755E0,5.139577E-2,1.7600853E2,1.3023565E0,8.050554E-2,8.508971E0,1.0937307E0,1.0937307E0,4.1837153E0,2.4864781E2,2.6480316E2,3.5127259E-9,8.583353E-1,3.143747E-1,5.051244E2,3.143747E-1,3.0663974E0,6.508483E0,3.0096984E0,1.2892709E0,1.0416366E0,7.65211E-3,-5.669574E-2,4.995476E-2,4.3230234E-3,6.718036E-2,1.5338743E-1,3.9578065E-2,-3.187351E-2,-1.1063622E-2,1.1330445E-1,1.462971E-1,2.1500861E-2,2.739726E-1,4.9627967E-2,6.938403E-2,-7.870282E-3,-1.7713995E-1,9.798809E-2,2.123333E-1,-2.4571948E-2,4.315175E-2,-1.1205537E-1,5.8151013E-3,6.0866863E-2,1.4445303E-1,4.481856E-2,3.642229E-2,-2.0320351E-4,-5.2447695E-2,1.7706597E-2,5.7140436E-2,-1.0098852E-2,-1.9556963E-1,1.5738767E-1,1.20550394E-1,-6.5187705E-3,2.702138E-1,4.5054886E-2,1.697157E-2,-1.10150844E-1,1.6940345E-1,3.784326E-2,1.9188404E-2,-5.826707E-2,6.72348E-2,-8.7789014E-2,-4.899119E-2,1.8466935E-2,-7.214201E-2,2.5575542E-1,5.1136144E-2,-3.018036E-2,-1.2211748E-1,2.1021144E-1,3.1122777E-1,9.037756E-2,1.3233417E-2,7.655314E-2,1.3379234E-2,-4.3769263E-2,4.720285E-2,5.8861626E-3,-5.7419386E-2,2.956135E-2],"split_indices":[6,8,17,9,14,14,17,0,5,17,16,18,16,17,3,7,0,18,17,18,17,11,17,13,13,11,13,17,15,18,16,15,17,5,2,15,17,11,0,13,13,17,0,17,15,11,11,0,11,11,16,3,15,1,12,1,18,1,14,0,14,14,11,0,0,0,0,0,0,0,0,0,0,0,0,0,0,0,0,0,0,0,0,0,0,0,0,0,0,0,0,0,0,0,0,0,0,0,0,0,0,0,0,0,0,0,0,0,0,0,0,0,0,0,0,0,0,0,0,0,0,0,0,0,0,0,0],"split_type":[0,0,0,0,0,0,0,0,0,0,0,0,0,0,0,0,0,0,0,0,0,0,0,0,0,0,0,0,0,0,0,0,0,0,0,0,0,0,0,0,0,0,0,0,0,0,0,0,0,0,0,0,0,0,0,0,0,0,0,0,0,0,0,0,0,0,0,0,0,0,0,0,0,0,0,0,0,0,0,0,0,0,0,0,0,0,0,0,0,0,0,0,0,0,0,0,0,0,0,0,0,0,0,0,0,0,0,0,0,0,0,0,0,0,0,0,0,0,0,0,0,0,0,0,0,0,0],"sum_hessian":[5.421907E5,4.0376138E5,1.3842933E5,2.6594316E5,1.3781822E5,1.10298195E5,2.8131137E4,1.6402608E5,1.01917086E5,1.2146719E5,1.6351026E4,9.938106E4,1.0917135E4,9.093404E3,1.9037732E4,3.1363525E4,1.3266255E5,9.736298E4,4.554112E3,9.900611E4,2.2461076E4,1.3887767E4,2.4632605E3,9.416685E4,5.2142085E3,9.33782E3,1.5793141E3,5.3221973E3,3.7712068E3,1.4837628E4,4.2001035E3,1.5341408E4,1.6022117E4,1.0789135E5,2.4771197E4,8.8074695E4,9.288274E3,2.9813093E3,1.5728026E3,9.383726E4,5.1688555E3,7.563519E3,1.4897557E4,1.0630229E4,3.2575376E3,1.6684443E3,7.9481616E2,8.651765E4,7.649203E3,4.1765024E3,1.0377057E3,7.154927E3,2.1828938E3,7.0254443E2,8.767697E2,6.0652844E2,4.7156685E3,3.5598882E3,2.1131873E2,1.2953835E4,1.8837931E3,3.5385745E3,6.6152905E2,1.3647273E4,1.6941343E3,1.0614795E4,5.4073228E3,1.0231773E5,5.5736265E3,2.0710023E4,4.061174E3,8.104872E4,7.0259766E3,6.1562124E3,3.1320623E3,2.2275122E3,7.537971E2,1.2582588E3,3.1454382E2,8.627595E4,7.561307E3,4.0951985E3,1.073657E3,4.203386E3,3.3601328E3,3.1656484E3,1.1731908E4,7.213851E3,3.4163774E3,2.23568E3,1.0218576E3,1.2921643E3,3.7628006E2,2.3336255E2,5.614536E2,8.182324E4,4.6944043E3,5.8938037E3,1.7553997E3,3.1740305E3,1.002472E3,8.735427E2,1.6416298E2,5.4991084E3,1.655818E3,1.9842794E3,1.9861447E2,5.6086025E1,6.464584E2,4.165903E2,4.6017938E2,5.537789E2,5.274955E1,4.1646313E3,5.510373E2,3.2938464E3,2.6604166E2,1.5823566E2,5.308306E1,2.7651228E3,1.0188712E4,1.4047782E3,4.790149E2,1.0443501E3,2.4942244E3,4.8156943E2,1.7995967E2],"tree_param":{"num_deleted":"0","num_feature":"19","num_nodes":"127","size_leaf_vector":"0"}},{"base_weights":[-6.2783085E-2,-8.328035E-2,3.9737645E-1,-1.3058317E-1,1.4054495E-1,5.440226E-1,1.1501923E-1,-1.7527297E-1,2.4353306E-1,1.7739457E-1,7.325868E-3,6.6789514E-1,8.0526546E-2,2.313479E-1,7.5291544E-2,-2.3333962E-1,2.217329E-1,3.0939767E-1,-1.24808274E-1,2.1908052E-1,1.907402E-2,2.606974E-1,3.2052107E-3,8.172504E-1,1.2341332E-1,1.3189825E-1,-2.0674522E-1,6.1812725E-2,6.8346965E-1,9.179747E-2,-1.13425866E-1,-2.8767467E-1,3.590592E-1,2.822739E-1,-1.255521E-1,3.818878E-1,-8.615901E-2,-1.8738998E-1,-1.5774233E-2,2.562755E-1,8.41212E-3,3.508829E-2,-1.07644215E-1,4.2018455E-1,1.3014018E-2,-2.0878362E-2,4.7734816E-2,9.9909264E-1,2.4021992E-1,1.9049253E-1,-2.8387105E-1,1.8565772E-1,-1.4049934E-1,-3.2654685E-1,1.3784785E-2,-1.539912E-1,1.1276396E-1,8.260374E-1,1.630609E-1,1.0122435E-1,-1.5346324E-1,-3.0929026E-1,-2.0967083E-2,8.9018166E-2,-1.07447386E-1,1.430164E-1,-3.1064441E-2,1.03085466E-1,-1.2960749E-2,-2.3916563E-2,-6.654547E-2,1.4665572E-1,6.8721874E-3,-1.1377368E-2,-1.3211237E-1,-3.9019622E-2,-1.2319071E-1,4.4494057E-3,-4.1754033E-2,8.891822E-2,1.3551226E-2,1.584206E-1,3.7714504E-5,1.590269E-2,-1.7983692E-2,-4.9355168E-2,5.3439632E-2,3.9505493E-2,1.9720376E-1,3.5116112E-1,-2.501138E-2,-1.6465245E-3,-3.7723046E-2,9.3231924E-2,1.2782982E-2,3.720822E-1,9.4660625E-2,9.6424416E-2,-3.4355175E-2,7.2945826E-2,-4.3445587E-2,-5.09714E-2,-2.4538773E-1,8.165453E-2,-2.9466264E-2,-2.8230962E-1,-3.0911535E-2,-2.9391178E-1,-7.319569E-2,5.21312E-2,-1.379612E-1,-4.530152E-1,-3.6123864E-2,5.597544E-2,-3.865152E-2,2.9933417E-1,9.802036E-2,-3.194124E-1,7.019003E-2,3.718757E-2,-2.8745513E-3,1.4392565E-2,-1.2705289E-1,-1.8051049E-1,1.9459594E-2,-3.272813E-2,9.801178E-2],"categories":[],"categories_nodes":[],"categories_segments":[],"categories_sizes":[],"default_left":[0,0,0,0,0,0,0,0,0,0,0,0,0,0,0,0,0,0,0,0,0,0,0,0,0,0,0,0,0,0,0,0,0,0,0,0,0,0,0,0,0,0,0,0,0,0,0,0,0,0,0,0,0,0,0,0,0,0,0,0,0,0,0,0,0,0,0,0,0,0,0,0,0,0,0,0,0,0,0,0,0,0,0,0,0,0,0,0,0,0,0,0,0,0,0,0,0,0,0,0,0,0,0,0,0,0,0,0,0,0,0,0,0,0,0,0,0,0,0,0,0,0,0,0,0,0,0],"id":10,"left_children":[1,3,5,7,9,11,13,15,17,19,21,23,25,27,29,31,33,35,37,39,41,43,45,47,49,51,53,55,57,59,61,63,65,67,69,71,73,75,77,79,81,83,85,87,89,91,93,95,97,99,101,103,105,107,109,111,113,115,117,119,121,123,125,-1,-1,-1,-1,-1,-1,-1,-1,-1,-1,-1,-1,-1,-1,-1,-1,-1,-1,-1,-1,-1,-1,-1,-1,-1,-1,-1,-1,-1,-1,-1,-1,-1,-1,-1,-1,-1,-1,-1,-1,-1,-1,-1,-1,-1,-1,-1,-1,-1,-1,-1,-1,-1,-1,-1,-1,-1,-1,-1,-1,-1,-1,-1,-1],"loss_changes":[4.9038145E3,5.2698516E3,9.179756E2,6.8699517E3,4.2629834E2,8.377495E2,3.501367E1,8.461677E3,1.0637854E3,4.489319E2,1.9645092E1,9.362866E2,4.545936E1,1.4783186E2,1.7615768E1,1.0307322E4,9.847639E2,1.0665823E3,4.5385788E1,4.2192114E2,2.8776625E1,1.1889278E1,1.9858994E1,9.4787744E2,6.780362E1,3.8278214E1,1.2353155E1,1.5456957E1,3.88927E1,1.20331955E1,8.2337E0,1.2081979E4,1.4644431E3,7.963379E2,3.0660149E1,1.207043E3,9.842287E1,5.402925E1,9.167663E0,3.8758276E2,3.479837E1,2.1442543E1,2.5888826E1,1.2443882E1,1.3371709E1,1.9394777E1,8.748732E0,1.1322622E3,6.2438057E1,3.7641434E1,2.1230017E1,5.362233E1,1.2831788E1,1.6095531E1,1.2620529E1,1.2049828E1,2.0294752E1,3.5060272E1,1.0205069E1,1.2611927E1,1.050756E1,1.5995315E1,9.539329E0,0E0,0E0,0E0,0E0,0E0,0E0,0E0,0E0,0E0,0E0,0E0,0E0,0E0,0E0,0E0,0E0,0E0,0E0,0E0,0E0,0E0,0E0,0E0,0E0,0E0,0E0,0E0,0E0,0E0,0E0,0E0,0E0,0E0,0E0,0E0,0E0,0E0,0E0,0E0,0E0,0E0,0E0,0E0,0E0,0E0,0E0,0E0,0E0,0E0,0E0,0E0,0E0,0E0,0E0,0E0,0E0,0E0,0E0,0E0,0E0,0E0,0E0,0E0,0E0],"parents":[2147483647,0,0,1,1,2,2,3,3,4,4,5,5,6,6,7,7,8,8,9,9,10,10,11,11,12,12,13,13,14,14,15,15,16,16,17,17,18,18,19,19,20,20,21,21,22,22,23,23,24,24,25,25,26,26,27,27,28,28,29,29,30,30,31,31,32,32,33,33,34,34,35,35,36,36,37,37,38,38,39,39,40,40,41,41,42,42,43,43,44,44,45,45,46,46,47,47,48,48,49,49,50,50,51,51,52,52,53,53,54,54,55,55,56,56,57,57,58,58,59,59,60,60,61,61,62,62],"right_children":[2,4,6,8,10,12,14,16,18,20,22,24,26,28,30,32,34,36,38,40,42,44,46,48,50,52,54,56,58,60,62,64,66,68,70,72,74,76,78,80,82,84,86,88,90,92,94,96,98,100,102,104,106,108,110,112,114,116,118,120,122,124,126,-1,-1,-1,-1,-1,-1,-1,-1,-1,-1,-1,-1,-1,-1,-1,-1,-1,-1,-1,-1,-1,-1,-1,-1,-1,-1,-1,-1,-1,-1,-1,-1,-1,-1,-1,-1,-1,-1,-1,-1,-1,-1,-1,-1,-1,-1,-1,-1,-1,-1,-1,-1,-1,-1,-1,-1,-1,-1,-1,-1,-1,-1,-1,-1],"split_conditions":[5.0346146E0,1.0742308E0,5.139577E-2,3.143747E-1,1.0456759E0,1.0697227E0,1.14142396E-1,3.2031913E0,2.036831E0,3.2031913E0,1.0937307E0,3.2031913E0,2.036831E0,1.0926886E-1,1.8841602E0,2.036831E0,4.228594E0,4.1981816E0,5.139577E-2,2.036831E0,2.5199202E2,2.456284E0,4.8633236E-2,2.509326E2,4.269025E0,8.489916E0,2.725931E0,6.3743367E0,3.2031913E0,3.4281854E2,1.1545964E2,6.490755E0,1.0697227E0,8.508971E0,3.880698E2,2.509326E2,4.9601495E2,1.1047328E0,8.389469E0,4.1981816E0,1.0937307E0,4.228594E0,8.599103E0,1.5744438E0,3.5215904E1,5.0017114E2,9.641255E-2,1.0937307E0,1E0,2.3311382E2,1E0,1.0937307E0,9.631832E1,2.4288805E0,8.955882E0,5.346265E1,1.0108995E0,2.4353783E2,2.1962843E0,4.1981816E0,2.1591227E0,3.4280682E0,2.5985613E-1,8.9018166E-2,-1.07447386E-1,1.430164E-1,-3.1064441E-2,1.03085466E-1,-1.2960749E-2,-2.3916563E-2,-6.654547E-2,1.4665572E-1,6.8721874E-3,-1.1377368E-2,-1.3211237E-1,-3.9019622E-2,-1.2319071E-1,4.4494057E-3,-4.1754033E-2,8.891822E-2,1.3551226E-2,1.584206E-1,3.7714504E-5,1.590269E-2,-1.7983692E-2,-4.9355168E-2,5.3439632E-2,3.9505493E-2,1.9720376E-1,3.5116112E-1,-2.501138E-2,-1.6465245E-3,-3.7723046E-2,9.3231924E-2,1.2782982E-2,3.720822E-1,9.4660625E-2,9.6424416E-2,-3.4355175E-2,7.2945826E-2,-4.3445587E-2,-5.09714E-2,-2.4538773E-1,8.165453E-2,-2.9466264E-2,-2.8230962E-1,-3.0911535E-2,-2.9391178E-1,-7.319569E-2,5.21312E-2,-1.379612E-1,-4.530152E-1,-3.6123864E-2,5.597544E-2,-3.865152E-2,2.9933417E-1,9.802036E-2,-3.194124E-1,7.019003E-2,3.718757E-2,-2.8745513E-3,1.4392565E-2,-1.2705289E-1,-1.8051049E-1,1.9459594E-2,-3.272813E-2,9.801178E-2],"split_indices":[5,11,17,1,13,13,17,14,12,14,11,14,12,17,13,12,16,16,17,12,15,14,17,3,16,0,14,0,14,15,15,0,13,0,18,3,18,13,0,16,11,16,0,13,18,18,14,11,10,15,9,11,3,16,2,15,13,3,16,16,14,16,1,0,0,0,0,0,0,0,0,0,0,0,0,0,0,0,0,0,0,0,0,0,0,0,0,0,0,0,0,0,0,0,0,0,0,0,0,0,0,0,0,0,0,0,0,0,0,0,0,0,0,0,0,0,0,0,0,0,0,0,0,0,0,0,0],"split_type":[0,0,0,0,0,0,0,0,0,0,0,0,0,0,0,0,0,0,0,0,0,0,0,0,0,0,0,0,0,0,0,0,0,0,0,0,0,0,0,0,0,0,0,0,0,0,0,0,0,0,0,0,0,0,0,0,0,0,0,0,0,0,0,0,0,0,0,0,0,0,0,0,0,0,0,0,0,0,0,0,0,0,0,0,0,0,0,0,0,0,0,0,0,0,0,0,0,0,0,0,0,0,0,0,0,0,0,0,0,0,0,0,0,0,0,0,0,0,0,0,0,0,0,0,0,0,0],"sum_hessian":[5.1990725E5,4.9773694E5,2.217029E4,4.1089878E5,8.683816E4,1.4591212E4,7.5790776E3,3.6705322E5,4.3845574E4,6.802225E4,1.8815904E4,1.1513665E4,3.0775461E3,1.9281984E3,5.6508794E3,3.202181E5,4.6835137E4,3.7194785E4,6.6507896E3,5.3844543E4,1.4177706E4,3.001152E2,1.851579E4,9.034842E3,2.4788232E3,2.6111458E3,4.664004E2,1.4031765E3,5.250219E2,5.1968564E3,4.540229E2,2.9331556E5,2.6902502E4,3.988271E4,6.952428E3,3.1434162E4,5.7606216E3,4.225044E3,2.4257454E3,4.576432E4,8.080225E3,1.2587641E4,1.5900651E3,1.8213756E2,1.1797765E2,1.2016999E4,6.498791E3,6.8693433E3,2.165499E3,2.1287527E3,3.5007053E2,2.1810247E3,4.3012115E2,3.0190924E2,1.6449115E2,2.676257E2,1.1355508E3,4.116592E2,1.1336272E2,5.0050684E3,1.9178825E2,1.4484291E2,3.0917996E2,3.1568305E4,2.6174727E5,2.1447418E4,5.4550845E3,3.355783E4,6.324884E3,4.711305E3,2.241123E3,2.4217705E4,7.2164585E3,5.071174E3,6.894479E2,3.3630654E3,8.6197876E2,1.9443995E3,4.813459E2,3.845575E4,7.30857E3,1.258398E2,7.9543853E3,1.0590937E4,1.996705E3,1.3264996E3,2.6356543E2,8.28763E1,9.926127E1,8.21205E0,1.0976561E2,1.0480011E4,1.5369883E3,1.2305892E2,6.375732E3,5.077146E3,1.792197E3,1.7622391E3,4.0325995E2,1.84005E3,2.8870273E2,2.895937E2,6.047685E1,1.6715808E3,5.0944385E2,1.8149487E1,4.1197168E2,3.266032E1,2.6924893E2,1.23432625E2,4.1058525E1,5.404249E0,2.6222147E2,8.699638E2,2.65587E2,3.0555902E2,1.06100174E2,5.4242053E0,1.07938515E2,4.152896E3,8.5217236E2,1.1031912E2,8.146913E1,8.096147E1,6.3881447E1,2.4720555E2,6.1974407E1],"tree_param":{"num_deleted":"0","num_feature":"19","num_nodes":"127","size_leaf_vector":"0"}},{"base_weights":[-4.629516E-2,3.8855404E-3,-2.0250879E-1,1.0053049E-1,-1.993457E-1,-2.6611555E-1,1.7704183E-1,1.2612955E-2,1.1952752E-1,-2.541583E-1,2.5567126E-1,-3.1247956E-1,4.3826592E-1,2.3194313E-1,5.4949853E-3,-3.318102E-2,1.00567415E-1,1.6725098E-1,4.4347994E-2,-3.1332412E-1,3.162649E-1,3.2858327E-1,-2.7437374E-2,-3.7367746E-1,3.3970785E-1,5.864142E-1,-1.3905874E-1,2.9210913E-1,5.1152795E-3,2.4771702E-2,-2.0148471E-1,-1.4985076E-2,-1.2906681E-1,1.6277596E-1,-2.5412738E-2,1.9296695E-1,7.8941724E-4,2.1172343E-3,2.6814467E-1,-3.8894722E-1,2.3903541E-1,4.1250962E-1,3.1242624E-2,4.5825955E-1,4.7527354E-2,-1.1983398E-1,3.7628442E-2,-4.4686437E-1,2.8452185E-1,4.2314592E-1,-1.3528275E-1,8.209912E-1,1.3649254E-1,-2.0065159E-1,2.0980198E-2,3.855134E-1,9.7844236E-2,3.7970543E-2,-1.6547672E-1,-9.409024E-2,5.796014E-2,-9.0638196E-1,-1.2781845E-1,1.2441549E-3,-4.9480215E-2,-5.464371E-2,8.229118E-3,6.054645E-2,-4.7299843E-2,9.065354E-3,-1.9785915E-2,6.64484E-2,1.8480912E-2,-3.455711E-2,3.3030313E-2,-1.3137131E-2,1.0996691E-1,1.0335257E-1,6.0579055E-3,-1.3935268E-1,9.523265E-2,9.2203364E-2,-6.305998E-3,1.5694639E-1,1.9643113E-2,1.7811943E-2,-4.6101205E-2,1.7139366E-1,-5.385002E-3,2.2053098E-2,-1.0838299E-1,-4.8510045E-2,2.8783437E-2,1.483372E-2,-1.3308415E-1,-1.5896887E-1,8.824416E-2,1.122329E-1,-9.893951E-4,1.7617755E-1,2.987747E-2,-2.3587286E-2,-1.3073988E-1,3.082961E-1,1.4850823E-2,5.5086043E-2,-3.9150737E-2,-9.418651E-2,-2.8128231E-2,3.016117E-1,-3.9500534E-3,1.3729396E-1,-1.0923104E-3,6.4056315E-2,1.7653996E-2,2.0381246E-2,-5.1575657E-2,-7.330997E-2,9.790571E-2,-4.590988E-2,5.025367E-2,2.9348578E-2,-1.8372988E-2,-3.8039842E-1,8.129033E-2,-1.654963E-2,-2.2837292E-1],"categories":[],"categories_nodes":[],"categories_segments":[],"categories_sizes":[],"default_left":[0,0,0,0,0,0,0,0,0,0,0,0,0,0,0,0,0,0,0,0,0,0,0,0,0,0,0,0,0,0,0,0,0,0,0,0,0,0,0,0,0,0,0,0,0,0,0,0,0,0,0,0,0,0,0,0,0,0,0,0,0,0,0,0,0,0,0,0,0,0,0,0,0,0,0,0,0,0,0,0,0,0,0,0,0,0,0,0,0,0,0,0,0,0,0,0,0,0,0,0,0,0,0,0,0,0,0,0,0,0,0,0,0,0,0,0,0,0,0,0,0,0,0,0,0,0,0],"id":11,"left_children":[1,3,5,7,9,11,13,15,17,19,21,23,25,27,29,31,33,35,37,39,41,43,45,47,49,51,53,55,57,59,61,63,65,67,69,71,73,75,77,79,81,83,85,87,89,91,93,95,97,99,101,103,105,107,109,111,113,115,117,119,121,123,125,-1,-1,-1,-1,-1,-1,-1,-1,-1,-1,-1,-1,-1,-1,-1,-1,-1,-1,-1,-1,-1,-1,-1,-1,-1,-1,-1,-1,-1,-1,-1,-1,-1,-1,-1,-1,-1,-1,-1,-1,-1,-1,-1,-1,-1,-1,-1,-1,-1,-1,-1,-1,-1,-1,-1,-1,-1,-1,-1,-1,-1,-1,-1,-1],"loss_changes":[3.9397427E3,7.471455E3,2.9500615E3,4.3056958E2,3.057666E3,3.4179917E3,1.651861E2,1.8450891E2,7.605884E2,3.692812E3,2.720891E2,3.9192695E3,5.529193E2,1.8132953E2,1.6975334E1,5.255768E1,1.2292398E2,5.551052E2,7.78003E2,4.141004E3,2.8206445E2,3.8199194E2,1.623852E1,4.324504E3,3.3392236E2,5.42786E2,1.3023224E1,1.9051215E2,1.5624283E1,1.5358185E1,1.8707096E1,7.264316E1,3.991652E1,1.3140448E2,1.1696973E1,4.2091846E2,2.200176E2,1.1586407E3,2.4742548E2,4.6543105E3,2.1208344E2,2.9512695E2,1.351699E1,3.8613843E2,3.5188904E1,1.0097771E1,9.037359E0,4.970831E3,2.3164392E2,3.8043103E2,2.1410105E1,5.389946E2,2.2220356E1,1.1522167E1,1.2381578E1,1.9906201E2,1.5375202E1,1.4712873E1,1.7547228E1,1.3130182E1,1.4467639E1,1.4875847E1,1.5114937E1,0E0,0E0,0E0,0E0,0E0,0E0,0E0,0E0,0E0,0E0,0E0,0E0,0E0,0E0,0E0,0E0,0E0,0E0,0E0,0E0,0E0,0E0,0E0,0E0,0E0,0E0,0E0,0E0,0E0,0E0,0E0,0E0,0E0,0E0,0E0,0E0,0E0,0E0,0E0,0E0,0E0,0E0,0E0,0E0,0E0,0E0,0E0,0E0,0E0,0E0,0E0,0E0,0E0,0E0,0E0,0E0,0E0,0E0,0E0,0E0,0E0,0E0,0E0,0E0],"parents":[2147483647,0,0,1,1,2,2,3,3,4,4,5,5,6,6,7,7,8,8,9,9,10,10,11,11,12,12,13,13,14,14,15,15,16,16,17,17,18,18,19,19,20,20,21,21,22,22,23,23,24,24,25,25,26,26,27,27,28,28,29,29,30,30,31,31,32,32,33,33,34,34,35,35,36,36,37,37,38,38,39,39,40,40,41,41,42,42,43,43,44,44,45,45,46,46,47,47,48,48,49,49,50,50,51,51,52,52,53,53,54,54,55,55,56,56,57,57,58,58,59,59,60,60,61,61,62,62],"right_children":[2,4,6,8,10,12,14,16,18,20,22,24,26,28,30,32,34,36,38,40,42,44,46,48,50,52,54,56,58,60,62,64,66,68,70,72,74,76,78,80,82,84,86,88,90,92,94,96,98,100,102,104,106,108,110,112,114,116,118,120,122,124,126,-1,-1,-1,-1,-1,-1,-1,-1,-1,-1,-1,-1,-1,-1,-1,-1,-1,-1,-1,-1,-1,-1,-1,-1,-1,-1,-1,-1,-1,-1,-1,-1,-1,-1,-1,-1,-1,-1,-1,-1,-1,-1,-1,-1,-1,-1,-1,-1,-1,-1,-1,-1,-1,-1,-1,-1,-1,-1,-1,-1,-1,-1,-1,-1],"split_conditions":[1E0,1E0,2.509326E2,6.490755E0,8.489916E0,2.5199202E2,3.0805476E0,1E0,1E0,1.0062458E1,1.0697227E0,1.0062458E1,3.2031913E0,1.0697227E0,2.718792E2,2.036831E0,5.139577E-2,2.036831E0,1.0456759E0,2.509326E2,1.14142396E-1,5.139577E-2,1.3675621E-3,1.0697227E0,4.228594E0,5.139577E-2,1.0926886E-1,5.139577E-2,2.036831E0,6.490755E0,5.60302E-3,2.5199202E2,1.022278E0,2.5199202E2,1.2984888E2,3.2031913E0,1E0,1.0062458E1,1.0937307E0,1.0697227E0,3.2031913E0,1.0937307E0,4.9601495E2,3.2031913E0,3.0047128E0,2.5687275E0,1.7336517E1,1.0937307E0,1.0937307E0,5.139577E-2,8.477088E0,1.0697227E0,2.095498E0,4.5989108E-1,7.607105E-2,8.508971E0,1.14142396E-1,2.4697183E2,2.3311382E2,3.143747E-1,1.14142396E-1,4.565689E2,5.2129926E2,1.2441549E-3,-4.9480215E-2,-5.464371E-2,8.229118E-3,6.054645E-2,-4.7299843E-2,9.065354E-3,-1.9785915E-2,6.64484E-2,1.8480912E-2,-3.455711E-2,3.3030313E-2,-1.3137131E-2,1.0996691E-1,1.0335257E-1,6.0579055E-3,-1.3935268E-1,9.523265E-2,9.2203364E-2,-6.305998E-3,1.5694639E-1,1.9643113E-2,1.7811943E-2,-4.6101205E-2,1.7139366E-1,-5.385002E-3,2.2053098E-2,-1.0838299E-1,-4.8510045E-2,2.8783437E-2,1.483372E-2,-1.3308415E-1,-1.5896887E-1,8.824416E-2,1.122329E-1,-9.893951E-4,1.7617755E-1,2.987747E-2,-2.3587286E-2,-1.3073988E-1,3.082961E-1,1.4850823E-2,5.5086043E-2,-3.9150737E-2,-9.418651E-2,-2.8128231E-2,3.016117E-1,-3.9500534E-3,1.3729396E-1,-1.0923104E-3,6.4056315E-2,1.7653996E-2,2.0381246E-2,-5.1575657E-2,-7.330997E-2,9.790571E-2,-4.590988E-2,5.025367E-2,2.9348578E-2,-1.8372988E-2,-3.8039842E-1,8.129033E-2,-1.654963E-2,-2.2837292E-1],"split_indices":[6,8,3,0,0,15,14,9,9,2,13,2,14,13,15,12,17,12,13,3,17,17,17,13,16,17,17,17,12,0,11,15,13,15,15,14,7,2,11,13,14,11,18,14,12,13,2,11,11,17,0,13,12,13,12,0,17,15,15,1,17,18,18,0,0,0,0,0,0,0,0,0,0,0,0,0,0,0,0,0,0,0,0,0,0,0,0,0,0,0,0,0,0,0,0,0,0,0,0,0,0,0,0,0,0,0,0,0,0,0,0,0,0,0,0,0,0,0,0,0,0,0,0,0,0,0,0],"split_type":[0,0,0,0,0,0,0,0,0,0,0,0,0,0,0,0,0,0,0,0,0,0,0,0,0,0,0,0,0,0,0,0,0,0,0,0,0,0,0,0,0,0,0,0,0,0,0,0,0,0,0,0,0,0,0,0,0,0,0,0,0,0,0,0,0,0,0,0,0,0,0,0,0,0,0,0,0,0,0,0,0,0,0,0,0,0,0,0,0,0,0,0,0,0,0,0,0,0,0,0,0,0,0,0,0,0,0,0,0,0,0,0,0,0,0,0,0,0,0,0,0,0,0,0,0,0,0],"sum_hessian":[5.02587E5,3.8039362E5,1.2219335E5,2.5779962E5,1.22594E5,1.0465509E5,1.7538262E4,4.580721E4,2.1199242E5,1.0941412E5,1.3179885E4,9.81924E4,6.4626943E3,1.3285926E4,4.2523374E3,3.0123742E4,1.568347E4,1.2967461E5,8.231781E4,9.91323E4,1.0281821E4,1.0480555E4,2.6993306E3,8.9769336E4,8.423063E3,5.1429395E3,1.3197545E3,1.0500408E4,2.785517E3,3.8908496E3,3.614876E2,2.5320002E4,4.80374E3,1.0498872E4,5.184597E3,1.1232224E5,1.735237E4,6.925105E4,1.3066764E4,8.719482E4,1.1937473E4,7.686007E3,2.5958142E3,7.171204E3,3.30935E3,1.1150557E3,1.5842748E3,8.0786766E4,8.982569E3,7.1646177E3,1.2584463E3,3.3799175E3,1.7630222E3,9.528033E2,3.6695126E2,7.09033E3,3.410078E3,2.3363281E3,4.4918906E2,8.4886554E2,3.0419841E3,3.3133743E1,3.2835385E2,2.2455799E4,2.8642034E3,3.586985E3,1.2167551E3,9.358873E3,1.1399988E3,2.1856455E3,2.9989514E3,9.2281266E4,2.0040979E4,8.419361E3,8.933008E3,6.1504344E4,7.7466997E3,9.989743E3,3.0770205E3,7.87693E4,8.425523E3,9.453996E3,2.4834766E3,5.827506E3,1.8585012E3,2.2536497E3,3.4216458E2,5.795215E3,1.3759897E3,3.1123538E3,1.9699637E2,9.34074E2,1.8098172E2,1.5471798E3,3.7094986E1,7.264682E4,8.1399395E3,6.850087E3,2.1324822E3,4.7529976E3,2.41162E3,1.0598812E3,1.9856499E2,2.665551E3,7.143665E2,1.4987826E3,2.6423962E2,4.6158725E2,4.91216E2,1.134868E1,3.5560257E2,5.981442E3,1.1088882E3,8.586443E2,2.5514336E3,2.0450261E3,2.913021E2,3.8753174E2,6.165731E1,6.931126E2,1.5575293E2,2.279701E3,7.6228314E2,2.528935E1,7.844394E0,2.9554257E2,3.281128E1],"tree_param":{"num_deleted":"0","num_feature":"19","num_nodes":"127","size_leaf_vector":"0"}},{"base_weights":[-3.4853302E-2,-7.840548E-2,8.5531704E-2,-1.0915496E-1,2.4977328E-1,-1.1412283E-2,1.1040629E-1,-1.4902194E-1,2.0615204E-1,3.539778E-1,-1.4945738E-1,-6.4164765E-2,8.895692E-4,1.330506E-1,-1.9802852E-2,-1.9413164E-1,2.7190563E-1,2.8116754E-1,-9.184585E-2,4.9734488E-1,-1.10344075E-1,-1.0826972E-1,-3.874744E-1,1.6919307E-1,-8.173274E-2,2.861506E-1,-2.57824E-2,1.5695605E-1,3.541402E-2,9.9117085E-2,-6.2542975E-2,-2.5522056E-1,2.4160327E-1,3.6899304E-1,-1.0387378E-1,3.613494E-1,-3.7304644E-2,-6.264988E-2,-2.8591454E-1,6.068416E-1,-1.4350851E-1,-7.105874E-2,-2.6037925E-1,-7.526125E-2,-3.6617497E-1,-5.181498E-1,-6.2170226E-2,-1.6677989E-1,2.4645776E-1,-9.027122E-2,1.6653636E-1,3.668547E-1,-2.0006824E-2,-3.8058154E-2,1.079073E-2,1.8375053E-1,5.591399E-2,7.7773735E-2,-1.2552424E-1,-5.2302852E-2,5.044676E-1,-3.762344E-2,-1.5056284E-1,-9.4568856E-2,1.259339E-1,-2.0761434E-2,1.0285007E-1,-1.7951934E-2,1.5353248E-1,-2.359399E-2,-9.931899E-2,1.3217402E-1,-3.7564065E-2,-1.5622759E-2,4.5096315E-2,-1.0555201E-2,-7.430145E-2,-1.0851166E-1,5.869082E-3,2.1855067E-1,-1.4822553E-2,-1.2823969E-2,-1.9363812E-1,-1.483304E-2,-1.1024475E-1,-9.73155E-2,-1.580285E-2,-8.191443E-3,-1.0348402E-1,-8.677051E-2,-2.0272097E-1,-3.342412E-2,-1.9934116E-1,-5.1410265E-2,1.5694144E-1,-4.500337E-1,-2.2165086E-2,8.372759E-2,-1.1404357E-1,-4.224275E-2,-1.3841934E-2,6.4587556E-2,-2.780459E-1,1.4171371E-1,8.065543E-3,1.3637381E-2,-1.3257395E-1,-4.022099E-3,-2.169977E-2,-8.762653E-3,1.4625804E-2,2.1525372E-2,7.129845E-2,2.8260445E-2,-1.9788308E-2,6.013882E-2,9.988255E-3,-5.3101774E-2,4.7363946E-3,-4.0208036E-3,-8.4527135E-2,1.8712279E-1,7.4364117E-4,-1.8558628E-3,-4.370632E-2,-5.6968693E-2,-1.5818948E-2],"categories":[],"categories_nodes":[],"categories_segments":[],"categories_sizes":[],"default_left":[0,0,0,0,0,0,0,0,0,0,0,0,0,0,0,0,0,0,0,0,0,0,0,0,0,0,0,0,0,0,0,0,0,0,0,0,0,0,0,0,0,0,0,0,0,0,0,0,0,0,0,0,0,0,0,0,0,0,0,0,0,0,0,0,0,0,0,0,0,0,0,0,0,0,0,0,0,0,0,0,0,0,0,0,0,0,0,0,0,0,0,0,0,0,0,0,0,0,0,0,0,0,0,0,0,0,0,0,0,0,0,0,0,0,0,0,0,0,0,0,0,0,0,0,0,0,0],"id":12,"left_children":[1,3,5,7,9,11,13,15,17,19,21,23,25,27,29,31,33,35,37,39,41,43,45,47,49,51,53,55,57,59,61,63,65,67,69,71,73,75,77,79,81,83,85,87,89,91,93,95,97,99,101,103,105,107,109,111,113,115,117,119,121,123,125,-1,-1,-1,-1,-1,-1,-1,-1,-1,-1,-1,-1,-1,-1,-1,-1,-1,-1,-1,-1,-1,-1,-1,-1,-1,-1,-1,-1,-1,-1,-1,-1,-1,-1,-1,-1,-1,-1,-1,-1,-1,-1,-1,-1,-1,-1,-1,-1,-1,-1,-1,-1,-1,-1,-1,-1,-1,-1,-1,-1,-1,-1,-1,-1],"loss_changes":[2.5573333E3,3.6145244E3,3.1247577E2,4.1167393E3,1.2766224E3,1.717157E1,3.040536E2,5.5204976E3,8.217849E2,1.6199548E3,6.2231125E1,2.0527094E1,1.6326718E2,2.0502661E2,7.765682E1,6.9899307E3,1.0267498E3,7.499431E2,4.1873936E1,1.3048203E3,3.3824837E1,4.608373E1,3.9785217E1,9.143505E0,9.880856E0,